<?xml version="1.0"?>
<opencv_storage>
<my_svm type_id="opencv-ml-svm">
  <svm_type>C_SVC</svm_type>
  <kernel><type>LINEAR</type></kernel>
  <C>3.1250000000000000e+02</C>
  <term_criteria><epsilon>1.1920928955078125e-07</epsilon>
    <iterations>1000</iterations></term_criteria>
  <var_all>26</var_all>
  <var_count>26</var_count>
  <class_count>50</class_count>
  <class_labels type_id="opencv-matrix">
    <rows>1</rows>
    <cols>50</cols>
    <dt>i</dt>
    <data>
      1 2 3 4 5 6 7 8 9 10 11 12 13 14 15 16 17 18 19 20 21 22 23 24 25
      26 27 28 29 30 31 32 33 34 35 36 37 38 39 40 41 42 43 44 45 46 47
      48 49 50</data></class_labels>
  <sv_total>1225</sv_total>
  <support_vectors>
    <_>
      5.66692543e+00 5.72918034e+00 -1.81848736e+01 -6.65952492e+00
      7.16630507e+00 -4.30077791e+00 -6.23626041e+00 1.57224521e-01
      4.49320316e+00 7.17577362e+00 6.69923067e-01 6.82848644e+00
      -8.55700433e-01 -4.24740076e+00 -5.05018568e+00 -1.61010504e+00
      -8.01689997e-02 9.86138248e+00 9.04131031e+00 1.33299294e+01
      1.09990120e+01 -3.71260738e+00 -1.45107450e+01 -9.61315536e+00
      -8.59360695e+00 2.53645134e+00</_>
    <_>
      6.75706482e+00 1.46479225e+01 -7.84351826e+00 -5.58408451e+00
      6.91376019e+00 -1.03606567e+01 -7.58110571e+00 -6.12821388e+00
      -7.63914728e+00 -1.63663244e+00 -3.26057386e+00 1.99583173e+00
      -6.16037464e+00 1.16026793e+01 8.05803204e+00 1.31752625e+01
      2.00778437e+00 4.44639587e+00 6.71784449e+00 1.14065056e+01
      7.15238714e+00 -4.48010206e+00 -1.42534227e+01 -8.10175419e+00
      -8.98392200e+00 -2.86797071e+00</_>
    <_>
      1.10652056e+01 1.72106647e+01 7.13672304e+00 4.82887363e+00
      1.05540407e+00 -8.46904087e+00 -4.56726360e+00 -1.12517500e+01
      -1.33355761e+01 -1.27677231e+01 -1.59705601e+01 -5.12902927e+00
      -6.79471588e+00 1.51197183e+00 8.35215282e+00 1.01270790e+01
      -5.80686903e+00 2.72838545e+00 4.66148329e+00 7.95536852e+00
      1.24484606e+01 8.67513466e+00 -5.38337755e+00 -4.66787004e+00
      -1.79275298e+00 -1.82038713e+00</_>
    <_>
      -5.43328381e+00 8.28604507e+00 -1.75690436e+00 1.26430225e+01
      7.68346882e+00 -6.81106329e+00 -8.04026127e+00 -7.29860067e+00
      -5.58205128e+00 -1.83617413e+00 1.52223814e+00 2.24300432e+00
      3.83473849e+00 9.67638206e+00 5.76524210e+00 3.69027948e+00
      -3.92772436e+00 4.98197746e+00 5.05416012e+00 1.19041414e+01
      8.18893623e+00 -2.69727612e+00 -9.23475742e+00 -6.34998131e+00
      -7.75833988e+00 -1.87472305e+01</_>
    <_>
      9.12152863e+00 8.48703194e+00 5.73370516e-01 5.83319187e+00
      3.03558254e+00 -3.98284221e+00 -4.74914503e+00 -3.85554147e+00
      -3.04450631e+00 -6.39192390e+00 -8.54538631e+00 -1.06364326e+01
      -1.00408030e+01 -6.11908484e+00 6.81727552e+00 5.08273935e+00
      -5.07377684e-01 4.52304935e+00 4.83547592e+00 1.28892775e+01
      1.40834284e+01 5.04018831e+00 -6.49558258e+00 -8.81086254e+00
      1.93330336e+00 -9.07595825e+00</_>
    <_>
      -3.30366254e+00 1.10566053e+01 1.54912189e-01 1.48009768e+01
      1.47918301e+01 -1.57705605e+00 -4.27587414e+00 -5.55354643e+00
      -5.65702295e+00 -5.64059258e+00 -1.63165627e+01 -2.84243155e+00
      -2.73450732e+00 -3.12569833e+00 5.24053860e+00 9.80836201e+00
      -5.65956020e+00 5.22244358e+00 5.21009064e+00 1.22516165e+01
      1.15296154e+01 9.81655598e+00 -9.16286755e+00 -8.59330082e+00
      -1.26406689e+01 -1.28002043e+01</_>
    <_>
      -9.95862961e+00 1.13626795e+01 -1.02024670e+01 1.44683142e+01
      2.33389206e+01 5.89787006e-01 -1.17279978e+01 -1.07491207e+01
      -4.24031687e+00 -2.24469841e-01 -8.75528431e+00 -1.25087929e+00
      -7.25880480e+00 9.21919250e+00 1.57297602e+01 8.91989613e+00
      -1.10105677e+01 3.47447062e+00 2.80545831e+00 5.78873396e+00
      4.63116264e+00 1.77905130e+00 -2.66725445e+00 -5.82746792e+00
      -1.43107433e+01 -3.92343450e+00</_>
    <_>
      1.67867899e+00 1.39906750e+01 8.94447207e-01 2.05317640e+00
      -5.40197372e-01 -1.44756384e+01 -1.22422295e+01 -1.
      -2.88718009e+00 -5.61197639e-01 -3.96862364e+00 -5.83501279e-01
      -1.97148025e+00 2.62033844e+00 3.07442856e+00 4.39860535e+00
      -2.26037407e+00 6.20203304e+00 4.74974775e+00 9.47278214e+00
      7.66494465e+00 1.72744489e+00 3.36357415e-01 8.24428737e-01
      -1.10710704e+00 -1.80905628e+01</_>
    <_>
      7.81746006e+00 1.43226585e+01 8.33660793e+00 1.22151499e+01
      7.54616737e+00 -1.39024830e+01 -8.50295544e+00 -1.08167200e+01
      -9.80902386e+00 -5.05504465e+00 -1.35717764e+01 -1.84218903e+01
      -7.06024361e+00 1.17776656e+00 7.99756765e-01 5.23481703e+00
      -3.03612590e+00 1.77336156e+00 4.88557667e-01 5.07303762e+00
      1.21983585e+01 9.43704605e+00 -2.03926849e+00 -2.07331228e+00
      8.56111288e-01 7.01198721e+00</_>
    <_>
      -1.84561503e+00 5.42424154e+00 -3.24593663e+00 1.11553917e+01
      9.14289284e+00 -4.81012726e+00 -8.68369579e+00 -2.03913212e+00
      -8.56480002e-01 2.83754802e+00 9.77146208e-01 1.74058914e+00
      -1.65458012e+00 2.80730844e+00 3.56357050e+00 6.99367714e+00
      3.01649189e+00 4.14621115e+00 3.24049664e+00 4.51103449e+00
      1.97119641e+00 -3.26832026e-01 -6.77141666e+00 -5.66119957e+00
      -8.00965118e+00 -1.76231270e+01</_>
    <_>
      4.98317099e+00 1.55312109e+01 2.97207415e-01 -4.90762800e-01
      1.19959331e+00 -1.34049931e+01 -1.58367414e+01 -9.82103634e+00
      -2.51297450e+00 -1.68339872e+00 -8.06913471e+00 -3.49827576e+00
      -8.82026970e-01 5.08402443e+00 6.09818172e+00 6.42605972e+00
      1.61124873e+00 7.20351315e+00 6.63708353e+00 9.77858925e+00
      7.57654285e+00 3.87784362e-01 -1.41366472e+01 -7.81858635e+00
      -6.03117418e+00 1.13715353e+01</_>
    <_>
      -1.59162273e+01 1.19129429e+01 -9.57154465e+00 3.20837080e-01
      4.01480341e+00 -3.36418724e+00 -1.00540614e+00 5.14849472e+00
      8.64202690e+00 6.97473764e+00 -1.59574604e+00 1.19618964e+00
      -9.42551851e-01 -5.19689703e+00 3.06719828e+00 4.68643856e+00
      3.11054993e+00 9.06143951e+00 8.12429237e+00 9.82553482e+00
      9.09069347e+00 2.83129573e+00 -8.68608475e+00 -1.05177345e+01
      -6.56214619e+00 -2.46489525e+01</_>
    <_>
      1.34800363e+00 6.96151352e+00 2.00169802e+00 -4.64601469e+00
      -1.61075723e+00 -3.31455660e+00 -6.35435343e-01 -7.08699882e-01
      -5.30686677e-01 -1.94610417e+00 -6.96258354e+00 -7.80999613e+00
      -6.49032164e+00 -2.13948321e+00 4.92939091e+00 2.97535324e+00
      -8.23981941e-01 1.55007637e+00 1.54103851e+00 5.02757454e+00
      4.06664610e+00 -4.96372432e-01 -4.36440182e+00 -3.29142761e+00
      -2.59554243e+00 1.79650745e+01</_>
    <_>
      6.09967411e-01 1.54115019e+01 -4.43640614e+00 -8.03382683e+00
      -2.27758408e+00 -6.21822309e+00 -3.40747643e+00 -1.85108340e+00
      -3.77497196e+00 -5.03982127e-01 -2.43907428e+00 -1.75065589e+00
      -4.80939293e+00 5.40773296e+00 5.45538664e+00 8.07373047e+00
      4.65421820e+00 6.54154444e+00 6.07230234e+00 8.84095573e+00
      1.21605101e+01 -3.14438057e+00 -1.57220230e+01 -6.40184546e+00
      -3.29121637e+00 -5.16570759e+00</_>
    <_>
      -3.88525820e+00 1.44618330e+01 1.48372591e+00 1.25644617e+01
      7.05323362e+00 -7.52164268e+00 -2.93585372e+00 2.18721724e+00
      3.68460512e+00 2.06817687e-01 -9.31090927e+00 -5.10435963e+00
      -9.22859383e+00 1.77581882e+00 5.55187464e+00 2.23725271e+00
      -7.97331572e+00 -5.45254707e+00 -2.64776564e+00 1.35680265e+01
      2.11912575e+01 4.38363504e+00 -1.04205456e+01 -1.19712620e+01
      -7.04457951e+00 -6.85313368e+00</_>
    <_>
      -3.15341425e+00 1.28271475e+01 -3.84706199e-01 1.07273092e+01
      7.40573406e+00 -1.23927612e+01 -1.22134209e+01 -1.06111145e+01
      -1.04408083e+01 -5.41143942e+00 -7.11877203e+00 -2.09223318e+00
      -1.84059572e+00 -1.30249739e+00 5.97761154e+00 9.61327457e+00
      -6.20401837e-02 2.27003050e+00 5.40385209e-02 5.93519020e+00
      1.11339493e+01 4.16333151e+00 -7.31442070e+00 -9.82129288e+00
      -1.49159968e+00 1.55434914e+01</_>
    <_>
      2.83923960e+00 3.47942209e+00 -3.44228292e+00 2.16973376e+00
      5.26362514e+00 -1.49402964e+00 -3.95566797e+00 3.45578611e-01
      6.13233335e-02 3.23831010e+00 1.38399601e+00 4.31234455e+00
      3.69186163e+00 5.21926403e+00 4.84830427e+00 3.05546045e+00
      2.91660142e+00 3.69866395e+00 1.72194135e+00 3.08074087e-01
      1.17258608e-01 -3.24398494e+00 -5.91826773e+00 -3.10136747e+00
      -5.57868719e+00 -2.19367085e+01</_>
    <_>
      -3.92862535e+00 1.49845343e+01 4.44104910e+00 1.17380838e+01
      8.73935032e+00 -1.16257601e+01 -1.16176472e+01 -3.81148696e+00
      -6.17051363e+00 -7.61283016e+00 -2.17810631e+01 -1.14885921e+01
      -6.67355585e+00 -1.37068987e+00 7.36714077e+00 4.18420458e+00
      1.49290144e+00 7.17685175e+00 5.24087286e+00 9.80185223e+00
      1.20554018e+01 7.74543667e+00 -7.17938709e+00 -8.36587334e+00
      -2.05895114e+00 8.71729279e+00</_>
    <_>
      4.47778845e+00 7.00464535e+00 -1.46117382e+01 -1.91214943e+01
      2.82340169e+00 -3.52784014e+00 -3.48458195e+00 -3.80885929e-01
      3.06985641e+00 3.91068578e+00 1.11308277e+00 5.43208027e+00
      -5.09327166e-02 5.80147600e+00 5.37329149e+00 2.55976057e+00
      -7.48044550e-01 3.51606250e+00 2.40132904e+00 8.91774940e+00
      6.77399158e+00 -1.26499033e+01 -8.53911591e+00 -4.06455994e+00
      -6.95507956e+00 1.09589682e+01</_>
    <_>
      5.46681070e+00 5.70682001e+00 -9.99171734e+00 -1.08199034e+01
      1.71065140e+00 8.46628070e-01 1.79026559e-01 2.97944039e-01
      -2.47073889e+00 -1.64511108e+00 -9.90799332e+00 -2.87620163e+00
      -2.00262976e+00 3.73192525e+00 5.71266651e+00 9.39504242e+00
      3.62476826e+00 5.73176861e+00 6.43071747e+00 1.17606602e+01
      1.54627724e+01 1.28137636e+00 -1.80904865e+01 -1.14900618e+01
      -2.41306233e+00 -5.63168669e+00</_>
    <_>
      9.53927422e+00 1.30688000e+01 -1.18574715e+00 -1.76995963e-01
      -1.92440224e+00 -1.36598396e+01 -8.44766521e+00 -3.27011538e+00
      -3.00907779e+00 5.06638408e-01 4.47792351e-01 -7.20988631e-01
      -7.81381750e+00 -2.83860540e+00 -2.83014560e+00 -1.14637721e+00
      2.68508226e-01 5.77534294e+00 5.15209532e+00 5.21659327e+00
      5.49985504e+00 2.16392803e+00 -8.09904385e+00 -3.06245160e+00
      -7.90753460e+00 1.84539814e+01</_>
    <_>
      -3.57896638e+00 2.03950524e+00 -1.82894688e+01 1.21080244e+00
      9.35019207e+00 5.74357843e+00 7.52559185e+00 8.86190510e+00
      7.44566584e+00 3.93036509e+00 -1.90814388e+00 6.48958826e+00
      3.86996150e+00 -3.97634292e+00 6.00076513e-03 7.78365016e-01
      -2.71201539e+00 3.32404780e+00 3.88695955e+00 1.00230713e+01
      7.55565214e+00 -4.33376026e+00 -1.82520752e+01 -1.25580196e+01
      -8.93673658e-01 -1.55387917e+01</_>
    <_>
      -3.86768126e+00 6.78620005e+00 -3.85021150e-01 -9.08743668e+00
      -2.66773582e+00 -2.26309991e+00 1.89933193e+00 5.37075472e+00
      3.62395954e+00 -1.87289572e+00 -9.44384861e+00 5.71025562e+00
      -8.33020389e-01 2.67620182e+00 -1.62559712e+00 6.38902950e+00
      3.76062846e+00 7.90300465e+00 3.93195343e+00 1.14427786e+01
      1.40626354e+01 8.48666954e+00 -1.23259020e+01 -1.50789108e+01
      -6.33826828e+00 -1.62539806e+01</_>
    <_>
      4.02007246e+00 6.76645660e+00 -6.90114546e+00 -1.28370609e+01
      -4.32578993e+00 5.04502177e-01 3.80672455e+00 4.38425589e+00
      2.74822712e+00 1.44764268e+00 -2.94273543e+00 -2.20677376e+00
      -5.35048628e+00 1.88423157e+00 2.45441484e+00 2.66027641e+00
      3.06698382e-02 4.04993200e+00 8.40524578e+00 1.42856178e+01
      1.56325731e+01 -5.73751032e-01 -2.03925400e+01 -9.14353371e+00
      -5.09789419e+00 -3.30914044e+00</_>
    <_>
      5.41273308e+00 4.54475737e+00 -1.63390846e+01 -1.13027430e+01
      1.14196861e+00 2.64333773e+00 4.07465267e+00 5.90856457e+00
      4.06460571e+00 1.21333969e+00 -3.01843047e-01 1.23393989e+00
      -9.47889388e-01 5.42731953e+00 4.72530556e+00 4.40588742e-01
      -1.31563318e+00 2.86760998e+00 5.47933245e+00 7.96302652e+00
      7.33131361e+00 1.61396313e+00 -1.06583261e+01 -6.61159611e+00
      -4.11576462e+00 -1.44934740e+01</_>
    <_>
      3.25794196e+00 6.45358276e+00 -8.75725651e+00 -1.04100542e+01
      -8.61983597e-01 -7.91314507e+00 1.35682034e+00 4.42395353e+00
      3.87577343e+00 4.47350550e+00 1.02492976e+00 2.86341691e+00
      -8.55358601e+00 -2.88925242e+00 2.31276727e+00 6.58223033e-01
      -1.90888798e+00 5.62047482e+00 7.89869404e+00 1.33628654e+01
      1.05284357e+01 -1.46519775e+01 -1.55412521e+01 -3.68538237e+00
      -6.01475859e+00 1.30761461e+01</_>
    <_>
      7.79103696e-01 7.67933750e+00 1.20176244e+00 -8.26325321e+00
      -9.15783346e-01 -6.27949524e+00 -3.59613729e+00 -2.41881418e+00
      -1.22300446e+00 -1.16744363e+00 -3.77305055e+00 -1.29809812e-01
      -2.99497485e+00 1.04045165e+00 -1.51376382e-01 -1.47358787e+00
      -3.90051126e-01 2.35536242e+00 3.81866670e+00 5.62766314e+00
      6.74054289e+00 -1.64527690e+00 -6.81625700e+00 -5.05019760e+00
      -1.83427703e+00 1.88799000e+01</_>
    <_>
      5.03467941e+00 1.35649176e+01 -9.46048450e+00 -9.90685272e+00
      -1.06600809e+01 -1.09512081e+01 2.58427334e+00 9.95161247e+00
      3.78145123e+00 6.66088676e+00 1.89515706e-02 -4.56249905e+00
      -2.83709669e+00 -1.42862892e+00 -3.18306446e+00 -7.88225746e+00
      -9.45886993e+00 6.71774244e+00 1.24733868e+01 1.97185478e+01
      1.77100811e+01 -2.46048403e+00 -1.29895163e+01 -5.08266115e+00
      -7.24677467e+00 -1.06059439e-01</_>
    <_>
      5.41889572e+00 3.94333935e+00 -2.10947380e+01 -8.72112846e+00
      4.65043211e+00 -8.66950417e+00 -9.59292126e+00 -1.43236518e+00
      7.21851110e-01 5.19875479e+00 2.89022756e+00 1.46592531e+01
      7.11834860e+00 6.03734922e+00 8.84340382e+00 1.01108313e+01
      -5.78878701e-01 8.25203228e+00 8.18156052e+00 1.17416706e+01
      6.65022373e+00 -1.33208160e+01 -1.24429750e+01 -7.01884365e+00
      -1.09493599e+01 -1.05966482e+01</_>
    <_>
      -1.08442879e+00 7.07789946e+00 -1.06208754e+01 -1.50066299e+01
      -8.42549145e-01 -5.64883614e+00 -1.04016602e+00 5.33642244e+00
      1.33627224e+00 -3.99742079e+00 -5.23339415e+00 2.34224343e+00
      5.18421745e+00 2.90682173e+00 4.40613794e+00 3.52343059e+00
      -1.50130069e+00 4.79720068e+00 7.40476751e+00 1.15137339e+01
      1.68681011e+01 3.26063371e+00 -1.37174730e+01 -8.72743320e+00
      -5.91662598e+00 -2.62076259e+00</_>
    <_>
      -6.16447210e-01 1.86957093e-03 -8.85448074e+00 5.07845211e+00
      4.37122250e+00 -2.11213422e+00 -1.45927668e+00 -4.61427540e-01
      -3.10949475e-01 1.18566871e+00 1.10218108e+00 4.71779823e+00
      4.39649582e+00 3.92700791e+00 7.27739191e+00 4.01739454e+00
      1.71412730e+00 3.35497880e+00 1.93469632e+00 4.69181204e+00
      2.97039032e+00 -4.71582270e+00 -6.86655521e+00 -5.14890289e+00
      -2.54492712e+00 -1.76505566e+01</_>
    <_>
      -2.13294530e+00 7.04615641e+00 -4.41431904e+00 -3.01973403e-01
      2.18726444e+00 -9.44553757e+00 -4.95151806e+00 -3.81694984e+00
      -3.55206871e+00 -3.62721252e+00 -3.18910670e+00 -2.00216651e+00
      -1.51224136e+00 3.25652552e+00 3.17052698e+00 3.44422340e+00
      1.44270992e+00 1.64326930e+00 3.32872748e+00 5.67378378e+00
      7.26017809e+00 2.61267757e+00 -9.86647606e+00 -2.86070085e+00
      -2.05248308e+00 1.26596508e+01</_>
    <_>
      3.22260880e+00 8.10484505e+00 -5.93033409e+00 -5.73404551e+00
      -7.46460009e+00 -8.62684250e+00 -3.67939281e+00 -3.63686323e+00
      -4.45111132e+00 1.10242629e+00 -1.51435304e+00 2.27672911e+00
      -4.68282080e+00 6.00302875e-01 4.80443621e+00 -4.09537435e-01
      -2.39491701e+00 5.09989357e+00 6.31747770e+00 8.87553692e+00
      1.40094423e+01 1.71338189e+00 -1.53228798e+01 -4.97553682e+00
      -2.99655414e+00 1.56926956e+01</_>
    <_>
      5.33500099e+00 5.91351652e+00 -8.27789974e+00 -7.05811596e+00
      -5.11646867e-01 -4.64861155e+00 -3.06292820e+00 4.76362371e+00
      3.05469006e-01 3.48962903e-01 -5.07893991e+00 -9.33776140e-01
      -4.70292377e+00 -2.20229006e+00 3.52522707e+00 4.64577675e+00
      9.82053339e-01 5.68799925e+00 8.52170849e+00 1.36866894e+01
      2.09460793e+01 5.42380619e+00 -1.21896286e+01 -1.68184986e+01
      -6.51502180e+00 -8.08562565e+00</_>
    <_>
      7.88530827e+00 1.67296486e+01 -2.59678626e+00 1.22724521e+00
      7.70204592e+00 -1.09417372e+01 -1.10488319e+01 -1.12126608e+01
      -8.48056602e+00 -6.38500309e+00 -8.99270725e+00 -2.57857394e+00
      4.71174240e-01 3.80581784e+00 3.49938917e+00 5.55703974e+00
      -3.97754759e-01 4.48847008e+00 7.12408352e+00 1.26802073e+01
      7.75393248e+00 -1.24545634e+00 -7.23816442e+00 -7.74908352e+00
      -7.07280922e+00 7.01575804e+00</_>
    <_>
      1.17404735e+00 5.80267620e+00 -7.12468672e+00 -1.31788039e+00
      4.64091921e+00 -1.83141422e+00 -9.54545796e-01 -2.33865786e+00
      5.15323915e-02 2.79069495e+00 -1.19673169e+00 1.23390090e+00
      -9.92576504e+00 -7.78411484e+00 -2.75835681e+00 -5.17370403e-01
      -8.29712212e-01 1.05323505e+00 4.14340496e+00 7.80157042e+00
      8.08106041e+00 2.52877927e+00 -8.63353634e+00 -1.87893403e+00
      -4.65089941e+00 1.24407797e+01</_>
    <_>
      -6.30749226e-01 4.51310873e+00 -6.41990566e+00 2.47378111e+00
      -1.98096800e+00 -4.26006269e+00 -6.70078099e-01 1.56968737e+00
      -1.63828206e+00 3.26437521e+00 -2.37931204e+00 4.58118677e+00
      -4.04094785e-01 1.34371548e+01 1.42148113e+01 7.37034273e+00
      -1.80513978e+00 -1.28196859e+00 1.42295301e+00 1.05418577e+01
      1.29707327e+01 -9.45187378e+00 -1.69168587e+01 -9.50845146e+00
      -4.91415548e+00 -1.40980930e+01</_>
    <_>
      7.22498298e-01 7.91689253e+00 1.28982091e+00 -2.62855458e+00
      -1.33444631e+00 -4.91872025e+00 -4.41630411e+00 -7.04452246e-02
      -3.24800909e-01 -1.81748259e+00 -5.72259331e+00 -4.62644720e+00
      -6.23890209e+00 -1.45882189e+00 2.98464924e-01 3.86826515e-01
      1.91659555e-01 3.62333035e+00 4.36815405e+00 5.73391104e+00
      5.30957031e+00 3.97221707e-02 -5.86021042e+00 -3.96982932e+00
      -1.42602253e+00 1.49327354e+01</_>
    <_>
      1.62971228e-01 1.01066494e+01 -2.48646140e+00 1.02374477e+01
      7.10364628e+00 -6.68260527e+00 8.00675213e-01 6.54523373e+00
      5.73122787e+00 4.09428501e+00 -1.30302401e+01 -8.61439896e+00
      -1.09847403e+01 -1.30780668e+01 -6.64977598e+00 1.60575509e+00
      -6.31285477e+00 1.17700624e+00 9.74350236e-03 8.76448059e+00
      1.79931602e+01 7.38477135e+00 -1.37298927e+01 -1.10916576e+01
      -2.31458640e+00 1.32582169e+01</_>
    <_>
      1.32651412e+00 8.46260548e+00 -3.58775306e+00 -6.64841986e+00
      -9.92780018e+00 -5.71371651e+00 -4.67128372e+00 1.30862486e+00
      -5.46035719e+00 -3.83349323e+00 -3.60057282e+00 1.06359708e+00
      1.73337376e+00 1.10178604e+01 1.23304892e+01 9.11659050e+00
      3.15298319e+00 3.98573685e+00 3.86214924e+00 7.35466576e+00
      9.05331421e+00 3.42278033e-01 -6.36917925e+00 -7.77815104e+00
      -7.76748228e+00 -8.75257301e+00</_>
    <_>
      4.33658028e+00 5.05030775e+00 1.89986670e+00 -1.16212450e-01
      -1.10933018e+01 -9.62710667e+00 -1.60204625e+00 -2.25400776e-01
      -2.60364246e+00 -3.23915392e-01 -4.15167999e+00 -3.09637213e+00
      -4.74988699e+00 -1.85607576e+00 2.17692661e+00 1.31190324e+00
      -3.63915396e+00 2.05493999e+00 5.39230633e+00 6.50756454e+00
      4.23376894e+00 3.01571107e+00 -3.56636572e+00 -6.09806776e+00
      -3.59007239e+00 2.03594208e+01</_>
    <_>
      1.88986325e+00 5.22352076e+00 -9.74238336e-01 2.68445015e-01
      -2.82920456e+00 -7.74974012e+00 -7.70478964e+00 -6.45180368e+00
      -9.15811443e+00 -5.31408787e+00 -2.29590011e+00 5.55185413e+00
      5.97201252e+00 5.66052294e+00 8.34391212e+00 5.39691257e+00
      1.72529769e+00 3.38173866e+00 4.33648682e+00 7.34541607e+00
      9.30485535e+00 1.05158091e+00 -9.19842720e+00 -8.21214867e+00
      -1.91053784e+00 -3.65342927e+00</_>
    <_>
      4.86440849e+00 1.06603842e+01 -6.33338404e+00 -5.14608860e+00
      -3.75897193e+00 -1.04696679e+00 8.50438774e-01 -5.84047222e+00
      -7.61693764e+00 -9.60982704e+00 -1.48942003e+01 2.20963407e+00
      3.61895227e+00 9.19202805e+00 9.94624424e+00 6.72265100e+00
      6.22592151e-01 2.52473402e+00 5.35044956e+00 1.29978514e+01
      1.33362732e+01 -3.30164814e+00 -6.98571682e+00 -6.91985273e+00
      -4.19908667e+00 -7.24349594e+00</_>
    <_>
      -1.22693586e+00 1.42247753e+01 -2.12373257e+00 -3.65189242e+00
      -2.97625256e+00 -3.62001586e+00 -8.36114502e+00 -1.17204981e+01
      -1.17048521e+01 -3.26774192e+00 -2.72251129e-01 1.07904739e+01
      5.43149137e+00 5.41140413e+00 1.00201206e+01 8.67405605e+00
      4.07975483e+00 5.91492081e+00 6.72342396e+00 7.92324877e+00
      7.83451033e+00 -5.48302698e+00 -1.18095846e+01 -4.92122889e+00
      -6.72153664e+00 -9.16748810e+00</_>
    <_>
      8. 1.51249990e+01 -2.62500072e+00 8.75000000e+00 1.49999976e+00
      -1.56249990e+01 -1.36250000e+01 -7.93750000e+00 -5.31249952e+00
      -1.31250012e+00 -4.37499952e+00 6.18750000e+00 8.93750000e+00
      9.99999905e+00 1.28125000e+01 6.56250000e+00 -2.87499952e+00
      -2.06250000e+00 5.62500238e-01 6.43750048e+00 3.62500072e+00
      -1.50625010e+01 -1.22500000e+01 -4.87500000e+00 -5. 4.43749142e+00</_>
    <_>
      6.58893585e+00 1.43701248e+01 -7.55152702e+00 -5.45042849e+00
      -1.38553846e+00 -1.09912548e+01 -6.12046289e+00 5.19610596e+00
      2.75937366e+00 1.27641094e+00 -9.95626068e+00 -2.11754680e+00
      -5.44488490e-01 3.37521505e+00 8.60229778e+00 1.07494802e+01
      1.73258638e+00 1.06349821e+01 7.70028067e+00 1.15694084e+01
      4.25017929e+00 -4.78997087e+00 -1.18609743e+01 -9.60414982e+00
      -7.02527523e+00 -1.14075089e+01</_>
    <_>
      6.79384887e-01 7.80648041e+00 1.54251432e+00 -5.40500021e+00
      -2.26467395e+00 -4.44274569e+00 -7.27539587e+00 -3.72548175e+00
      -2.70656705e+00 -3.50318551e+00 -7.55373001e+00 -5.63951015e+00
      -2.62718701e+00 3.47579885e+00 6.56511641e+00 3.95213366e+00
      4.03319508e-01 1.75172627e+00 3.96624422e+00 6.34302998e+00
      7.31696892e+00 -1.33594668e+00 -7.05624533e+00 -4.37550211e+00
      -2.28263330e+00 1.63910866e+01</_>
    <_>
      -2.51175094e+00 9.86541843e+00 -3.39214659e+00 1.34098077e+00
      7.39255488e-01 -1.04453096e+01 -8.98548794e+00 -6.35911179e+00
      -8.57015038e+00 -7.35698080e+00 -5.80524492e+00 2.31364059e+00
      5.64885473e+00 1.20005493e+01 1.06626863e+01 9.87229538e+00
      5.07218361e+00 5.33175230e+00 4.91198874e+00 4.29523039e+00
      5.27583838e+00 -2.66638190e-01 -7.89734507e+00 -5.86140537e+00
      -3.60122919e+00 -6.27786875e+00</_>
    <_>
      4.89841413e+00 6.57093668e+00 1.06359982e+00 -5.67190409e+00
      -6.10713530e+00 -5.78349400e+00 -5.60908318e+00 -7.97082567e+00
      -5.44137478e+00 1.55434692e+00 1.59031510e+00 4.22058868e+00
      2.78738999e+00 5.31119394e+00 8.48747635e+00 8.22216225e+00
      5.18084478e+00 4.66945887e+00 4.14692402e+00 5.78904867e+00
      5.61732817e+00 -2.08478999e+00 -1.04095793e+01 -7.26629257e+00
      -4.27821302e+00 -9.48734093e+00</_>
    <_>
      1.49903548e+00 1.13685083e+01 1.31810198e+01 3.36159825e+00
      -3.02598923e-01 -6.70739794e+00 -1.84453726e+00 -7.50476742e+00
      -1.39028835e+01 -1.22595882e+01 -5.32249689e+00 -5.38069057e+00
      -7.57293272e+00 1.90598221e+01 1.64382687e+01 1.86954174e+01
      3.18740201e+00 -8.20415592e+00 -3.38954043e+00 -2.35584927e+00
      -3.99707413e+00 -3.52644372e+00 2.56376471e-02 2.16643643e+00
      -1.36921823e-01 -6.57526970e+00</_>
    <_>
      2.67122579e+00 6.98882103e+00 1.28557730e+01 7.08112240e+00
      -2.99761605e+00 -6.41703963e-01 1.59972930e+00 -8.27172756e+00
      -9.31679535e+00 -9.45342064e+00 -9.77786541e+00 -6.29414129e+00
      -1.97702456e+00 2.69620681e+00 7.65843058e+00 4.36352205e+00
      -3.50379920e+00 -6.33325148e+00 -3.83577013e+00 -5.27645731e+00
      -3.84538949e-01 1.00353355e+01 7.80343246e+00 3.98654151e+00
      4.00437117e+00 -3.68040323e+00</_>
    <_>
      -8.20742893e+00 2.35402298e+00 1.46916656e+01 1.34644480e+01
      1.88399661e+00 -2.91619706e+00 -2.38168287e+00 -6.17780161e+00
      -7.42011118e+00 -7.46350574e+00 9.53834593e-01 -3.30660748e+00
      1.39693987e+00 1.08081055e+01 7.01675034e+00 2.85720658e+00
      -4.94279814e+00 -4.56658077e+00 -2.62568331e+00 -9.49406266e-01
      -8.26419294e-02 1.84600663e+00 3.67027783e+00 2.45038247e+00
      1.30888450e+00 -1.36620827e+01</_>
    <_>
      4.92793798e+00 4.92721462e+00 1.18419018e+01 9.29355526e+00
      -8.09906051e-02 -2.01677108e+00 1.79654300e+00 -2.07845688e+00
      -4.18931007e+00 -7.13669586e+00 -7.38064814e+00 -1.26838799e+01
      -1.09863052e+01 -4.58044052e+00 8.04481602e+00 2.35856819e+00
      -2.79366255e+00 -4.78744125e+00 -1.35954797e+00 1.02989304e+00
      5.23193216e+00 9.96940613e+00 3.83273935e+00 -7.18109190e-01
      7.12229300e+00 -9.58453655e+00</_>
    <_>
      -8.01965523e+00 4.10779619e+00 1.69086456e+01 1.29647179e+01
      1.00883543e+00 2.95567155e+00 2.38175726e+00 -4.56902218e+00
      -6.48345995e+00 -9.27932358e+00 -1.06898613e+01 -6.09931421e+00
      -1.21037364e+00 1.56731939e+00 8.64425564e+00 5.15770197e+00
      -4.97055817e+00 -7.40827036e+00 -4.80453587e+00 -5.16566515e+00
      -2.64697504e+00 1.28265810e+01 7.90992212e+00 3.41351604e+00
      6.05856180e-02 -8.56029606e+00</_>
    <_>
      -1.15363731e+01 5.02232027e+00 1.00338516e+01 1.35305195e+01
      4.48516512e+00 5.11183310e+00 -8.27470243e-01 -8.29483891e+00
      -5.44733000e+00 -8.34192657e+00 -7.57910204e+00 -7.24823141e+00
      -5.90411997e+00 9.75989723e+00 1.56644335e+01 5.69315147e+00
      -8.61264706e+00 -6.92103291e+00 -6.64061785e+00 -8.47649097e+00
      -7.97077656e+00 7.60560846e+00 1.33679943e+01 5.65456581e+00
      -3.04011440e+00 9.11727846e-01</_>
    <_>
      -3.03028464e+00 9.35278988e+00 1.31360378e+01 3.83687639e+00
      -3.78746104e+00 -8.54230881e+00 -6.39638042e+00 -2.80328155e+00
      -4.29116821e+00 -4.85659409e+00 -3.75503302e+00 -4.28734589e+00
      -2.60663867e+00 5.32381773e+00 6.02232552e+00 8.11774552e-01
      -4.43933344e+00 -3.79577780e+00 -6.78294659e-01 -9.39899743e-01
      1.73482239e-01 8.38303852e+00 9.16969490e+00 6.04357290e+00
      5.21661758e+00 -1.32602329e+01</_>
    <_>
      -9.25387144e-01 5.37595177e+00 1.39514723e+01 9.75074673e+00
      -2.17878723e+00 -3.96660924e+00 -8.84788454e-01 -6.30217838e+00
      -6.33257008e+00 -4.19158220e+00 -6.58045959e+00 -1.30733805e+01
      -2.50146651e+00 2.77923346e+00 3.26279235e+00 2.34862018e+00
      -4.34281081e-01 -6.04451227e+00 -4.71068573e+00 -6.31089783e+00
      -5.33535600e-01 1.04996376e+01 8.70658875e+00 4.55550718e+00
      4.93830299e+00 -1.19773078e+00</_>
    <_>
      -6.24005985e+00 1.89550102e+00 1.16152315e+01 1.44695253e+01
      2.77067208e+00 -2.76049089e+00 -4.19788885e+00 -3.16655135e+00
      -2.61454296e+00 -2.57275009e+00 -6.76973999e-01 -3.03095698e+00
      -3.97905183e+00 5.79210234e+00 5.91713810e+00 5.59428310e+00
      -6.35250092e-01 -4.85418987e+00 -2.84390473e+00 -4.84393930e+00
      -5.24002504e+00 4.87500000e+00 4.28147364e+00 1.84380162e+00
      3.64474475e-01 -1.17626257e+01</_>
    <_>
      -2.00402045e+00 1.35064430e+01 1.84406147e+01 1.04299850e+01
      -7.35308313e+00 -1.07298784e+01 -1.14139605e+01 -1.07935085e+01
      -4.24566174e+00 -9.62133026e+00 -1.42200041e+01 -1.17036638e+01
      -1.03522670e+00 1.03433361e+01 1.69053402e+01 7.78515196e+00
      1.56472242e+00 -4.03155565e+00 -3.97617072e-01 -2.18353868e-01
      -2.75484300e+00 4.63056707e+00 1.78600168e+00 2.34468675e+00
      2.03453040e+00 7.51326084e-01</_>
    <_>
      -1.98835087e+01 6.01190567e+00 1.12572308e+01 5.50298023e+00
      -4.69728088e+00 8.46938312e-01 3.20535803e+00 3.34651494e+00
      3.35884428e+00 2.42347885e-02 -2.61437273e+00 -4.05017138e+00
      -3.57865548e+00 8.52890611e-01 8.34184074e+00 2.93665218e+00
      -6.23298228e-01 -3.86862373e+00 -1.01998353e+00 -4.58843660e+00
      -3.55995107e+00 9.37627888e+00 8.46683979e+00 1.20153081e+00
      3.06802917e+00 -1.93137875e+01</_>
    <_>
      -2.48152256e+00 5.22765064e+00 9.37004185e+00 1.24184644e+00
      -8.63464737e+00 2.55367309e-01 3.72228360e+00 -1.11168420e+00
      -2.71949792e+00 -6.23301744e+00 -9.38335800e+00 -1.20285358e+01
      -6.92568064e+00 1.24870908e+00 7.23559904e+00 4.67438936e+00
      1.61039400e+00 -3.27275896e+00 -4.30604744e+00 -2.01481080e+00
      -1.92031324e+00 3.41644120e+00 4.85523224e+00 2.60781312e+00
      2.15421394e-01 1.53506899e+01</_>
    <_>
      -6.68628693e+00 1.46401224e+01 7.58766317e+00 2.94236317e-02
      -1.08335447e+01 -6.88361502e+00 4.84334946e-01 -3.68935657e+00
      -5.69449854e+00 -4.57787275e+00 -4.71195364e+00 -7.81725121e+00
      -7.62524080e+00 1.37936001e+01 1.58602705e+01 1.33522768e+01
      6.05287218e+00 -2.08289957e+00 -2.75905907e-01 1.12789345e+00
      5.61610889e+00 -2.26646900e+00 -7.47780800e+00 -3.96360993e-01
      3.53685904e+00 -1.10623627e+01</_>
    <_>
      -8.66215515e+00 7.66976786e+00 1.70965862e+01 1.26952620e+01
      -1.04380286e+00 -2.37927628e+00 2.56702304e+00 -2.87036479e-01
      -5.48618853e-01 -3.34468126e+00 -6.12857819e+00 -9.10931110e+00
      -6.42732239e+00 4.41272974e+00 7.34044695e+00 -1.04295456e+00
      -7.42025757e+00 -1.29040880e+01 -7.61668015e+00 -1.56555903e+00
      7.34019136e+00 1.00582676e+01 4.07983828e+00 -1.98116556e-01
      2.41013455e+00 -6.99181271e+00</_>
    <_>
      -9.22029591e+00 6.24360371e+00 1.28784885e+01 1.32645378e+01
      -2.27690768e+00 -3.21799779e+00 -2.49203682e+00 -6.67098522e+00
      -1.01714954e+01 -8.21070766e+00 -6.82774687e+00 -5.73211670e+00
      6.62505388e-01 2.92836928e+00 8.24966335e+00 6.98866367e+00
      3.05359699e-02 -7.52830458e+00 -7.61873770e+00 -7.83556223e+00
      -1.28178144e+00 8.79018593e+00 9.10177231e+00 1.38607311e+00
      6.03217983e+00 2.52809286e+00</_>
    <_>
      -1.01006709e-01 3.78903672e-02 5.68698072e+00 5.36840963e+00
      1.43389606e+00 -8.13117087e-01 -6.65877044e-01 -3.63571316e-01
      -1.11058438e+00 4.18863744e-01 1.85759771e+00 1.53727257e+00
      2.31733799e+00 8.59925461e+00 6.39250135e+00 2.17915654e+00
      2.01915622e-01 -1.51142871e+00 -1.94172084e+00 -5.54211044e+00
      -4.45438385e+00 2.04383537e-01 8.42565119e-01 1.59256494e+00
      -5.04220903e-01 -2.16625671e+01</_>
    <_>
      -6.41249895e+00 5.20695782e+00 1.53485270e+01 1.14756165e+01
      -1.08652210e+00 -2.08151507e+00 -1.23253739e+00 -4.02810717e+00
      -5.53264046e+00 -9.45743561e+00 -1.27255430e+01 -1.23617725e+01
      -2.43991733e+00 3.26085830e+00 6.81678009e+00 5.45615494e-01
      1.77411985e+00 -5.28074408e+00 -5.24950218e+00 -6.91308784e+00
      -1.99320269e+00 1.22126617e+01 1.05340853e+01 3.03857994e+00
      5.61590910e+00 9.65311825e-01</_>
    <_>
      -2.73644066e+00 1.98740590e+00 -9.73347247e-01 -1.68837318e+01
      -1.14370174e+01 -1.29554260e+00 3.94912624e+00 8.00390780e-01
      -3.07651490e-01 -1.85804152e+00 -6.99609876e-01 2.62500024e+00
      1.84060156e+00 1.62630749e+01 1.51535845e+01 1.01405096e+01
      3.46560192e+00 -5.88662720e+00 -9.34108448e+00 -4.05716944e+00
      -7.62548304e+00 -1.51090078e+01 6.75533056e+00 7.36385584e+00
      -9.06025320e-02 7.95687342e+00</_>
    <_>
      -1.10612535e+00 -2.20659828e+00 5.95464754e+00 -6.53037500e+00
      -1.47063458e+00 8.01696014e+00 1.16037169e+01 9.03303266e-01
      -9.52980328e+00 -1.54118986e+01 -1.78133698e+01 -1.03897009e+01
      -3.39217734e+00 1.43316069e+01 1.54816885e+01 1.90984516e+01
      7.40690613e+00 -2.69653249e+00 -3.05242825e+00 8.88534844e-01
      9.04764557e+00 2.02064109e+00 -1.02481203e+01 -4.62333012e+00
      6.87063932e+00 -1.31536484e+01</_>
    <_>
      5.64109993e+00 9.27066994e+00 1.23885698e+01 1.33175583e+01
      -1.45083666e+01 -1.57345324e+01 -4.06960154e+00 -2.21006799e+00
      -4.05476665e+00 -3.44333625e+00 -3.06662947e-01 -7.02966881e+00
      -1.06095333e+01 1.25962913e+00 -1.31186676e+00 1.18039966e+00
      3.33696508e+00 -1.09343398e+00 -3.41493201e+00 -5.11016560e+00
      -6.40909576e+00 8.53929996e+00 7.80603027e+00 7.63336563e+00
      -3.82859969e+00 1.27610435e+01</_>
    <_>
      -1.28674192e+01 -3.27612340e-01 -1.01682937e+00 7.73727131e+00
      3.90417552e+00 1.10477219e+01 1.75092487e+01 1.14920864e+01
      5.12704992e+00 -8.86679649e-01 -3.75171590e+00 1.82246363e+00
      3.17100453e+00 -1.02231145e+00 5.73179007e+00 8.96976531e-01
      -6.28880644e+00 -7.56283331e+00 -4.99690104e+00 -2.60678887e+00
      -2.36675286e+00 -2.81111789e+00 -7.10302210e+00 -1.38186514e+00
      7.07279730e+00 -2.05219307e+01</_>
    <_>
      -9.25943375e+00 2.17766142e+00 1.64387741e+01 -1.24322665e+00
      -8.31861591e+00 5.77392876e-01 5.76316547e+00 2.59304857e+00
      7.91676760e-01 -6.91013670e+00 -7.92707682e+00 5.00317156e-01
      -1.95249331e+00 7.11121368e+00 3.89859319e+00 3.77374530e+00
      5.83260179e-01 -3.64142394e+00 -3.64131522e+00 -1.14673543e+00
      3.07661390e+00 1.36387520e+01 2.40889978e+00 -4.37403393e+00
      2.46749449e+00 -1.73861179e+01</_>
    <_>
      -2.77619362e+00 2.33060455e+00 1.26595898e+01 -3.70549226e+00
      -1.24037275e+01 3.08714604e+00 1.34413538e+01 6.50996256e+00
      1.21051347e+00 -4.25276947e+00 -5.00057745e+00 -1.10567942e+01
      -1.17661800e+01 8.10820675e+00 9.32115841e+00 5.13487053e+00
      -3.53609383e-01 -6.87508774e+00 6.88637733e-01 3.73971820e+00
      9.91930771e+00 6.75400352e+00 -1.03547659e+01 -1.77104902e+00
      3.55866742e+00 -1.61474972e+01</_>
    <_>
      -2.34226063e-01 1.47583199e+00 -3.64493060e+00 -1.23097887e+01
      -6.04986525e+00 5.16909838e+00 9.91697788e+00 6.71845436e+00
      3.99525189e+00 -2.98634624e+00 -1.07352436e+00 -1.26348576e-02
      -1.25211930e+00 1.29721022e+01 9.28358269e+00 3.58030963e+00
      -4.92698479e+00 -5.48685598e+00 4.02306795e-01 -1.89111084e-02
      1.05987108e+00 7.51730061e+00 -3.37601852e+00 -1.43538046e+00
      3.65544438e+00 -2.29389400e+01</_>
    <_>
      -8.54216766e+00 3.67996669e+00 7.84074068e+00 -2.24962258e+00
      -1.88384724e+01 -5.24924326e+00 1.35606098e+01 9.75602055e+00
      3.54894686e+00 -3.13704109e+00 -5.26166296e+00 -3.69916368e+00
      -1.81001358e+01 9.92467999e-01 1.17552643e+01 7.29179239e+00
      5.07532179e-01 -6.91528082e+00 -2.58998370e+00 2.37462163e+00
      -8.27942789e-01 -1.70530777e+01 6.32556453e-02 9.45745182e+00
      3.42921090e+00 1.82059116e+01</_>
    <_>
      -3.56991744e+00 7.94399071e+00 1.07711411e+01 -3.08549690e+00
      -1.05747414e+01 -6.41264915e+00 -4.76075798e-01 -2.65578580e+00
      -4.40541553e+00 -6.78820467e+00 -6.06880569e+00 -4.42173672e+00
      -2.49128437e+00 5.77281141e+00 2.63260412e+00 1.87500268e-01
      2.47644663e+00 -2.31231475e+00 -1.86721075e+00 -1.28913212e+00
      2.31826343e-02 6.97331876e-02 2.31287074e+00 3.59235972e-01
      1.36684000e+00 2.25024185e+01</_>
    <_>
      -5.72479725e+00 5.91183662e+00 1.53523340e+01 4.54148865e+00
      -2.48105545e+01 -5.64140749e+00 1.16366358e+01 9.13165855e+00
      8.13376963e-01 -9.10532594e-01 -1.62616444e+00 -1.06700077e+01
      -3.35630417e+00 6.60137844e+00 3.54729033e+00 -6.06147003e+00
      -9.80628395e+00 -8.36488914e+00 -6.46680951e-01 1.22546828e+00
      1.26026487e+00 6.92863989e+00 1.03009968e+01 9.30297089e+00
      4.32437706e+00 -1.32596378e+01</_>
    <_>
      -4.59560299e+00 -3.74535155e+00 5.09041739e+00 4.32838392e+00
      -1.12306805e+01 -4.99261189e+00 -3.10572791e+00 -2.32938290e+00
      -2.93379474e+00 -3.05662799e+00 3.15564722e-01 9.72993755e+00
      6.57487297e+00 1.48316565e+01 1.50647869e+01 1.27536116e+01
      -1.40455985e+00 -6.08742428e+00 -4.09655857e+00 -5.79319334e+00
      -9.69316387e+00 -3.55468178e+00 9.47003269e+00 6.30622053e+00
      6.44214213e-01 -1.84903393e+01</_>
    <_>
      -1.20798950e+01 4.39824200e+00 1.75737476e+00 -1.29432020e+01
      -1.84199581e+01 -8.22508240e+00 6.01530838e+00 9.03966904e+00
      -5.27561963e-01 -1.23923950e+01 -9.99094963e+00 9.40702796e-01
      8.75208569e+00 1.34422312e+01 1.86799774e+01 9.78173351e+00
      -2.67844963e+00 -5.43958616e+00 5.13222814e-01 3.41522670e+00
      1.00746059e+01 1.29120235e+01 -2.11066055e+00 -2.38822341e+00
      8.20434272e-01 -1.33468876e+01</_>
    <_>
      -3.32473850e+00 -3.06986952e+00 1.51457965e+00 9.33497334e+00
      1.28550208e+00 -1.12977314e+00 1.37355125e+00 -1.44848752e+00
      -1.57925308e+00 -2.02529645e+00 6.55158579e-01 2.15951705e+00
      3.15316534e+00 7.50714016e+00 9.14728928e+00 3.60722709e+00
      -7.29008138e-01 -2.37928605e+00 -2.01707268e+00 -1.59952652e+00
      -1.24179709e+00 -1.47064435e+00 -2.43501216e-01 -5.42962492e-01
      2.46155810e+00 -1.93984432e+01</_>
    <_>
      -7.06249952e+00 5.62499952e+00 4.75000000e+00 4.31249952e+00
      -5.87499952e+00 -9.68750000e+00 -2.99999952e+00 -6.06249952e+00
      -9.37500000e+00 -7.93750000e+00 -6.12500000e+00 -5.93750095e+00
      -8.75000834e-01 8.68750000e+00 8.81250000e+00 1.03750000e+01
      5.81250000e+00 -2.62500000e+00 -2.43750000e+00 -5.62500238e-01
      2.50000000e+00 3.81250048e+00 -5.06250048e+00 3.12500024e+00
      1.43749988e+00 1.33750029e+01</_>
    <_>
      -7.29819059e+00 4.02252102e+00 8.93130398e+00 9.44236755e+00
      -1.82117443e+01 -1.24619398e+01 9.32630897e-01 -2.61546040e+00
      -5.40391445e+00 -2.03053713e+00 -4.37662268e+00 -1.48559248e+00
      -8.78865147e+00 4.76288414e+00 1.42693748e+01 4.82700682e+00
      -2.28855252e+00 -3.58339930e+00 -1.20190787e+00 -3.57346743e-01
      5.09790516e+00 7.78215933e+00 -5.16040564e+00 2.05610728e+00
      4.02252197e+00 9.11747456e+00</_>
    <_>
      -4.67121267e+00 3.00518155e+00 9.75052834e+00 3.33068967e+00
      -8.24450111e+00 -5.66888762e+00 3.63620877e+00 6.24862528e+00
      6.98709786e-01 -5.07275820e+00 -1.22776012e+01 -1.12282152e+01
      -6.79906988e+00 3.71034288e+00 1.32029400e+01 7.37880611e+00
      6.89402997e-01 -4.63293123e+00 1.31250012e+00 2.31017327e+00
      1.29781084e+01 1.46866541e+01 1.37129796e+00 -1.13232870e+01
      2.23508906e+00 -1.66267948e+01</_>
    <_>
      4.00110674e+00 1.29901676e+01 1.30389843e+01 9.12185287e+00
      -9.61486578e-01 -5.90395498e+00 -6.19627666e+00 -1.12796936e+01
      -1.55300255e+01 -1.70039387e+01 -1.15753002e+01 -7.78726006e+00
      3.51527905e+00 9.98854637e+00 8.45209312e+00 9.08161449e+00
      1.73315144e+00 -4.10134745e+00 -1.75819337e+00 9.91471827e-01
      -3.72907549e-01 3.34984612e+00 8.76844597e+00 2.45816803e+00
      -3.94230112e-02 -4.98092413e+00</_>
    <_>
      -1.16931939e+00 1.49037492e+00 3.59060049e+00 9.61757278e+00
      -2.92347717e+00 -2.69302368e+00 3.31166863e+00 -1.58287776e+00
      -2.00772238e+00 -8.81891072e-01 -3.68173599e+00 -2.95264935e+00
      -1.62084694e+01 -8.96120358e+00 1.16272557e+00 4.14317894e+00
      2.29295349e+00 -4.85545397e+00 -2.94355989e+00 -9.33343917e-02
      5.49013376e-01 3.61014676e+00 2.12886095e+00 5.61151361e+00
      -8.43334138e-01 1.42894487e+01</_>
    <_>
      -7.01509190e+00 -9.04436558e-02 1.26128426e+01 8.66088676e+00
      -1.02489071e+01 -1.79926217e+00 4.47620058e+00 7.24087000e-01
      -2.89753008e+00 -2.11158919e+00 -3.06440043e+00 -6.46576822e-01
      -1.57649720e+00 1.55081472e+01 1.70645981e+01 5.85080099e+00
      -4.37798834e+00 -1.16327972e+01 -6.01436424e+00 -2.67411971e+00
      8.37881327e-01 -1.15475917e+00 -4.46565539e-01 4.34916079e-01
      4.30619144e+00 -1.47256622e+01</_>
    <_>
      -3.14247108e+00 8.36396599e+00 9.50413418e+00 4.24464893e+00
      -7.79771137e+00 -5.08283901e+00 -2.13636303e+00 3.95755142e-01
      -2.26607108e+00 -5.72619104e+00 -1.07614717e+01 -1.22029934e+01
      -7.64194202e+00 5.57687543e-02 2.91479135e+00 3.08024597e+00
      2.79533267e+00 -1.45833835e-01 -4.84582856e-02 6.55619860e-01
      9.94018197e-01 3.36896110e+00 2.61281300e+00 9.38632071e-01
      1.84370637e+00 1.51839628e+01</_>
    <_>
      -8.34519958e+00 4.08978510e+00 1.44523220e+01 2.02337170e+01
      -1.42457747e+00 -2.56387854e+00 9.68795395e+00 8.27219677e+00
      4.52942848e+00 -1.01928532e+00 -1.33628969e+01 -1.50108309e+01
      -1.20909843e+01 -5.34332323e+00 -9.25420076e-02 3.53216946e-01
      -7.80933762e+00 -1.13760958e+01 -9.40770817e+00 -7.07695961e+00
      6.58969784e+00 1.58763733e+01 6.54989839e-01 -2.41823375e-01
      8.83779812e+00 1.58796358e+00</_>
    <_>
      -3.61216903e+00 6.97607279e+00 5.45710278e+00 -4.94822121e+00
      -1.22887096e+01 -2.69712257e+00 -1.38119328e+00 -1.97115019e-02
      -5.81161642e+00 -7.48690939e+00 -5.27619743e+00 -5.39477766e-01
      9.13393974e-01 1.40714245e+01 1.54136009e+01 7.56469965e+00
      1.57028091e+00 -2.95315361e+00 -9.65333939e-01 6.24691069e-01
      2.04968524e+00 3.19716573e+00 2.04993534e+00 -1.46032166e+00
      -1.73029852e+00 -8.71761799e+00</_>
    <_>
      1.02686286e-01 2.37726879e+00 9.46713448e+00 7.87302876e+00
      -1.88780327e+01 -6.35691500e+00 2.49175620e+00 -7.38231838e-01
      -4.50133181e+00 -3.47648358e+00 -5.03866529e+00 -5.21267033e+00
      -3.94718075e+00 1.65534759e+00 4.58681917e+00 2.55446243e+00
      -1.18004382e+00 -3.81745362e+00 -8.36233318e-01 -1.57550156e+00
      -3.24115610e+00 7.56185055e+00 7.46764803e+00 3.73318285e-01
      -4.79687713e-02 1.23365450e+01</_>
    <_>
      -4.75757986e-01 2.30542731e+00 7.40515137e+00 5.23675013e+00
      -7.71932030e+00 -6.53527260e+00 -6.46744680e+00 -8.12027359e+00
      -1.22007799e+01 -1.01674137e+01 -3.56392574e+00 2.25428534e+00
      8.90432167e+00 9.83121872e+00 1.26779928e+01 7.62986279e+00
      2.76889753e+00 -1.51434302e+00 -6.98176861e-01 4.28591341e-01
      4.23955965e+00 2.77831721e+00 -2.70477176e+00 -3.53298259e+00
      2.34704661e+00 -5.10695457e+00</_>
    <_>
      1.86417532e+00 4.91462326e+00 5.31449986e+00 -2.05739331e+00
      -7.76276493e+00 4.53839111e+00 6.34178638e+00 -5.97113609e+00
      -1.17244434e+01 -1.35741606e+01 -1.31450901e+01 -2.66591954e+00
      4.65442133e+00 1.16606016e+01 1.12156668e+01 6.23240805e+00
      7.74379492e-01 -5.33461285e+00 -2.08980465e+00 1.45973909e+00
      4.70771646e+00 -1.71221077e-01 4.49096298e+00 1.63650715e+00
      2.46871686e+00 -7.77805567e+00</_>
    <_>
      -6.34801579e+00 1.02695580e+01 1.31635008e+01 -1.46318093e-01
      -5.83833361e+00 -2.79240429e-01 -3.03222632e+00 -1.13583117e+01
      -1.20720663e+01 -7.28819609e+00 -6.84515178e-01 5.33010530e+00
      3.52089667e+00 8.46540070e+00 1.21897573e+01 5.53685617e+00
      9.81360674e-01 -3.90290070e+00 -6.54850304e-02 -2.99732065e+00
      5.65295741e-02 2.82279491e+00 1.03655064e+00 2.61501050e+00
      1.27759445e+00 -1.32529917e+01</_>
    <_>
      -1.41038382e+00 6.79779434e+00 1.46348171e+01 1.23755665e+01
      -8.94454098e+00 -8.74890423e+00 -3.67395091e+00 -6.08751392e+00
      -5.47581100e+00 -7.34640169e+00 -5.27747345e+00 -1.92707133e+00
      6.29919624e+00 9.63159752e+00 1.50179968e+01 5.68828440e+00
      -2.75432897e+00 -9.54944706e+00 -6.02262259e+00 -6.34242868e+00
      -1.00678968e+01 -7.12594032e+00 8.06220531e+00 5.85000992e+00
      4.56180716e+00 1.83543003e+00</_>
    <_>
      -2.80561686e+00 7.45565462e+00 1.16557598e+01 5.25181007e+00
      -8.84568596e+00 -6.54035616e+00 -2.79940873e-01 3.81486917e+00
      8.27420473e-01 -4.38385487e+00 -9.44143009e+00 -5.72861242e+00
      -2.35667109e+00 9.38558960e+00 1.36843863e+01 8.79185486e+00
      -1.13348639e+00 -2.07441378e+00 -1.36858451e+00 -2.09811854e+00
      -7.43582296e+00 1.83058524e+00 4.59343767e+00 6.69756532e-01
      2.85932803e+00 -1.63278637e+01</_>
    <_>
      -3.34508634e+00 6.19324541e+00 9.75190163e+00 2.99653411e+00
      -9.48849106e+00 -3.01456070e+00 -5.07591152e+00 -5.51685810e+00
      -5.78296471e+00 -7.44247341e+00 -9.62882328e+00 -9.46816635e+00
      -1.39570141e+00 6.85927105e+00 9.74845505e+00 7.78603506e+00
      3.57246470e+00 -3.33857012e+00 -2.13803482e+00 -6.57210708e-01
      1.66410470e+00 2.62844729e+00 2.86119270e+00 1.17139482e+00
      1.01840305e+00 1.00414047e+01</_>
    <_>
      -7.12059402e+00 5.93162632e+00 6.73949051e+00 4.35590839e+00
      -5.45750761e+00 -8.76560116e+00 -3.08397555e+00 -6.56759214e+00
      -6.93479156e+00 -9.62059402e+00 -4.10522223e+00 7.60737956e-01
      3.89082980e+00 1.38344326e+01 1.28346615e+01 7.71723270e+00
      9.16482151e-01 -2.99242830e+00 -1.52441251e+00 -4.63280010e+00
      -1.61449087e+00 4.60035849e+00 1.06736314e+00 1.76514328e+00
      2.94970584e+00 -4.94396591e+00</_>
    <_>
      2.35023952e+00 3.79179382e+00 1.16033945e+01 -1.76178145e+00
      -9.56595612e+00 -5.24137449e+00 -3.09468889e+00 -9.56160164e+00
      -7.17422104e+00 -1.53744018e+00 1.40936518e+00 2.12440085e+00
      1.59716463e+00 9.06407738e+00 1.06337070e+01 8.01118183e+00
      3.03218865e+00 -9.17392194e-01 3.44988108e-01 -2.47523963e-01
      1.60736823e+00 1.37440097e+00 -4.03248835e+00 -2.93194890e+00
      4.55132097e-01 -1.13329945e+01</_>
    <_>
      3.73536497e-01 4.16106939e+00 1.50691051e+01 1.09678297e+01
      -6.34335136e+00 3.05558825e+00 3.82402849e+00 -6.51496935e+00
      -7.44886160e+00 -9.14003849e+00 -1.12626247e+01 -5.65814781e+00
      -7.62073457e-01 -1.06681023e+01 -1.72896683e+00 -7.67307472e+00
      -9.76734543e+00 -5.44668770e+00 -3.25911283e+00 -5.71198320e+00
      5.10169458e+00 2.00979023e+01 1.39735518e+01 6.03540277e+00
      7.83364820e+00 8.91984165e-01</_>
    <_>
      -1.41693926e+01 -7.01590061e+00 7.95009089e+00 2.05898895e+01
      2.62146235e+00 2.50574493e+00 -1.29549599e+00 -1.91254580e+00
      1.33745456e+00 7.37601072e-02 5.85335493e+00 -3.22885603e-01
      6.89421034e+00 -1.03621411e+00 -4.78754568e+00 -1.01556988e+01
      -7.48520231e+00 -9.47656691e-01 -1.42270231e+00 6.87500000e-01
      3.12500000e+00 2.61373997e+00 4.19765663e+00 1.19765699e+00
      1.67049658e+00 -1.07667809e+01</_>
    <_>
      1.96830559e+00 -8.48642945e-01 1.01392355e+01 1.20451508e+01
      -9.78980064e-01 2.24544072e+00 1.60164630e+00 -7.43995130e-01
      1.50222456e+00 -2.42537856e+00 -4.23109531e+00 -1.14591875e+01
      -7.76946354e+00 -1.87543392e+01 -1.37789413e-01 -8.35987568e+00
      -3.53080559e+00 -1.58429766e+00 8.20731223e-02 4.17015171e+00
      1.22235327e+01 1.33078308e+01 5.18594360e+00 -2.85464907e+00
      9.19417381e+00 -9.98719883e+00</_>
    <_>
      -1.40640659e+01 -6.41232586e+00 9.95450974e+00 2.06168232e+01
      3.07061028e+00 1.06954966e+01 4.85538149e+00 1.72785544e+00
      4.60187244e+00 -1.18990242e+00 -9.20251465e+00 -3.16969347e+00
      4.28210020e+00 -1.73631096e+01 -6.65574837e+00 -1.06222954e+01
      -9.51699638e+00 -4.13508797e+00 -4.36563778e+00 -4.01044178e+00
      2.09422421e+00 1.74121761e+01 1.13040209e+01 3.24955273e+00
      3.15468401e-01 -3.47227120e+00</_>
    <_>
      -1.78314171e+01 -5.54996395e+00 -1.47947013e+00 1.85263062e+01
      8.65468121e+00 1.42968540e+01 -1.07579395e-01 -1.99836659e+00
      7.07168198e+00 1.74435675e+00 -4.20970440e+00 -1.31314433e+00
      -4.00123775e-01 -7.07245255e+00 2.16895318e+00 -1.11510677e+01
      -1.39771748e+01 -3.39139938e+00 -7.02470922e+00 -9.21044731e+00
      -5.63838243e+00 1.15561571e+01 1.81308270e+01 6.05734110e+00
      -2.37577295e+00 4.52401447e+00</_>
    <_>
      -8.95200729e+00 6.20022631e+00 1.14454470e+01 8.03090572e+00
      -7.39470482e+00 -1.03784208e+01 -7.34151840e+00 1.10464191e+00
      3.05930209e+00 2.53320909e+00 -5.14425278e-01 -2.09338164e+00
      1.34086394e+00 -6.12847281e+00 -4.06046438e+00 -9.54459000e+00
      -7.52829409e+00 -1.84181178e+00 -4.22123790e-01 -1.82758406e-01
      4.58284903e+00 1.17969561e+01 1.42317333e+01 7.55870247e+00
      7.71085072e+00 -1.32127132e+01</_>
    <_>
      -3.84953693e-02 1.69529867e+00 1.21767101e+01 1.30570087e+01
      7.14540780e-02 -7.48821855e-01 -1.21299410e+00 -4.73051739e+00
      -2.32429981e+00 -3.11939311e+00 -8.91853809e+00 -1.44683437e+01
      1.72874880e+00 -7.94460106e+00 -4.39915085e+00 -8.39408302e+00
      -4.14403152e+00 -3.94469810e+00 -6.07282686e+00 -7.82657146e+00
      3.13219881e+00 1.71908550e+01 1.24439211e+01 5.94327211e+00
      7.54157495e+00 3.30632186e+00</_>
    <_>
      -1.07046747e+01 -8.04957962e+00 4.92595148e+00 2.01329365e+01
      2.38423896e+00 2.03659010e+00 -3.32036710e+00 2.70835662e+00
      7.63892698e+00 6.30650854e+00 5.08104658e+00 1.18381822e+00
      3.91236842e-01 -6.13842392e+00 -5.51342392e+00 -3.93519020e+00
      -1.04813826e+00 -1.20785320e+00 -2.25324726e+00 -4.50093746e+00
      -3.11576128e+00 4.30138588e+00 4.96297646e+00 1.57404974e-01
      -4.12088633e-02 -1.23825645e+01</_>
    <_>
      -4.93762493e+00 5.26416492e+00 8.58076477e+00 1.06252489e+01
      -1.03731365e+01 -9.15730667e+00 -1.37965975e+01 -5.27435493e+00
      1.06008968e+01 2.61891055e+00 -1.11392899e+01 -7.71384287e+00
      6.44955206e+00 -8.31871319e+00 -1.37512457e+00 -1.34115334e+01
      -4.33076668e+00 3.81647587e+00 2.98993564e+00 2.00410104e+00
      2.41749597e+00 7.79845953e+00 7.92371690e-01 8.95128787e-01
      3.54846025e+00 2.14263268e+01</_>
    <_>
      -1.85234375e+01 -3.46859789e+00 9.26998377e-01 8.96162796e+00
      -3.58884120e+00 6.33620548e+00 4.73885393e+00 8.25177383e+00
      1.36540632e+01 7.42777777e+00 2.09292841e+00 -2.27231741e+00
      1.68474269e+00 -1.43991728e+01 -5.20884848e+00 -8.69027328e+00
      -1.07040489e+00 6.76988721e-01 7.30757475e-01 -3.07097125e+00
      2.40047264e+00 9.00583267e+00 6.88349724e+00 -1.50081623e+00
      3.90978670e+00 -1.58886251e+01</_>
    <_>
      -1.97901559e+00 2.99905300e+00 2.39742422e+00 -2.43178105e+00
      -9.58924103e+00 1.02003789e+00 3.37643909e+00 2.15935612e+00
      3.28674293e+00 -1.42367423e+00 -6.38837147e+00 -1.15992794e+01
      -3.04867482e+00 -8.58064461e+00 2.48140192e+00 -3.83303022e+00
      -2.06632566e+00 -1.00189433e-01 -2.44465899e+00 5.67272663e-01
      7.12310135e-01 5.48905230e+00 5.39314413e+00 1.94704545e+00
      8.17272842e-01 2.08383369e+01</_>
    <_>
      -1.63125000e+01 9.37500000e+00 0. -3.68750191e+00 -2.26875000e+01
      -8.75000238e-01 4.93750048e+00 4.25000000e+00 6.68750095e+00
      6.62500000e+00 -2.06250048e+00 -6.25000048e+00 -4.87500048e+00
      -1.81250036e+00 5.75000048e+00 6.24996014e-02 6.37500000e+00
      7.68750000e+00 3.81250000e+00 6.56250000e+00 18. 2.49999583e-01
      -1.46874981e+01 -2.56250024e+00 5.06250000e+00 -9.62499523e+00</_>
    <_>
      -1.02937450e+01 1.05930853e+00 1.09325686e+01 1.47617903e+01
      -1.13642991e+00 2.98678970e+00 4.71493816e+00 7.42357969e+00
      1.02662001e+01 2.65822244e+00 -3.62725878e+00 -6.53589344e+00
      -1.46023810e+00 -1.07937603e+01 -2.05620599e+00 -1.31360798e+01
      -1.01972542e+01 -1.24535723e+01 -8.27356625e+00 -5.38382769e-01
      1.15863543e+01 1.18135443e+01 6.61515188e+00 -2.62967014e+00
      3.21063852e+00 -4.89703083e+00</_>
    <_>
      -1.21661568e+01 -1.79795563e+00 8.58045101e+00 1.56893625e+01
      -1.94214427e+00 -7.24318922e-01 -1.79765093e+00 -5.45204401e+00
      -3.11386085e+00 -2.68966913e+00 -2.48638797e+00 -4.71411228e+00
      5.07611227e+00 -1.26027250e+01 -1.47896254e+00 -6.81590700e+00
      -1.59560633e+00 -3.40315628e+00 -8.18966866e+00 -8.34530067e+00
      2.24317431e-01 1.54836063e+01 1.24653511e+01 7.74443686e-01
      7.88706875e+00 1.31349192e+01</_>
    <_>
      -2.87632990e+00 -5.84388304e+00 1.73071659e+00 8.29374886e+00
      3.06037211e+00 2.24867010e+00 -7.79786587e-01 3.73603773e+00
      5.51635647e+00 6.73577213e+00 5.56569242e+00 5.06170130e+00
      5.03164911e+00 3.60505790e-01 -1.89029253e+00 -3.43776584e+00
      -6.88829958e-01 -1.38962224e-01 -1.79587722e+00 -6.28031874e+00
      -3.01715493e+00 1.48603761e+00 1.35970795e+00 8.28058302e-01
      -1.09388292e+00 -2.31719341e+01</_>
    <_>
      -1.09396992e+01 -7.79151142e-01 1.32995749e+01 1.37947760e+01
      -1.27448165e+00 -5.82063079e-01 -1.78315103e+00 8.72467220e-01
      3.18841767e+00 -2.27679443e+00 -1.17042408e+01 -1.05175543e+01
      2.72210932e+00 -1.27359076e+01 -2.47315264e+00 -1.30860376e+01
      -2.51588368e+00 -1.99183047e+00 -4.08277750e+00 -5.68451452e+00
      2.65527296e+00 1.84412041e+01 1.29241381e+01 3.36290503e+00
      7.99914551e+00 3.16722703e+00</_>
    <_>
      -2.17922688e+00 -8.20390415e+00 -1.28516674e+01 -2.03992481e+01
      -8.29079247e+00 5.50162554e+00 4.82062960e+00 6.66268253e+00
      1.21230907e+01 8.54093552e+00 4.82388115e+00 5.74483728e+00
      8.30069065e+00 -3.47518229e+00 -2.24010110e+00 -1.02514839e+01
      -1.75827229e+00 2.13977671e+00 -4.53443098e+00 -9.40751851e-01
      -1.42760253e+00 -1.09570122e+01 4.99172878e+00 4.04758120e+00
      6.64451003e-01 1.91477642e+01</_>
    <_>
      -4.71780682e+00 -1.60606117e+01 -1.10031967e+01 -1.12025557e+01
      -5.96581638e-01 1.78108063e+01 1.62466106e+01 1.15423603e+01
      6.50338936e+00 -3.50338936e+00 -13. -5.32286024e+00 3.45086217e+00
      -8.88366604e+00 -4.74830484e+00 -2.97477746e+00 3.00508332e+00
      5.92394495e+00 2.46611312e-01 4.92733335e+00 1.86554985e+01
      5.76902580e+00 -1.32093344e+01 -8.30741692e+00 9.21461010e+00
      2.34369397e-01</_>
    <_>
      3.94785285e+00 2.35539627e+00 2.05787516e+00 7.28882217e+00
      -1.62645931e+01 -6.97836018e+00 -4.05066109e+00 7.54407942e-02
      2.26811767e+00 3.78254414e+00 2.79030871e+00 2.03920746e+00
      -3.42769814e+00 -1.11540213e+01 -9.07709217e+00 -1.17718077e+01
      -5.52863441e-02 4.08838177e+00 -5.50110281e-01 -3.31046271e+00
      -3.45506668e+00 9.20875645e+00 7.18546295e+00 5.51294088e+00
      -2.34763217e+00 1.98416901e+01</_>
    <_>
      -9.02892208e+00 -8.86536884e+00 -9.81120872e+00 4.23140049e+00
      2.97233224e+00 1.10181293e+01 1.29884825e+01 1.19662971e+01
      1.17104492e+01 6.51301575e+00 2.09274793e+00 4.77952099e+00
      5.75689554e+00 -1.22847128e+01 -9.65435600e+00 -1.12813587e+01
      -6.13301659e+00 -2.32186532e+00 -1.74574816e+00 -2.53436685e-01
      2.73764729e+00 -8.07813480e-02 -4.92185879e+00 -2.68376374e+00
      5.57348585e+00 -3.27400422e+00</_>
    <_>
      -1.31732645e+01 -5.74540520e+00 7.76531553e+00 -7.67793655e-01
      -8.85750103e+00 6.00361681e+00 7.48931026e+00 9.30823898e+00
      1.16812325e+01 1.49064457e+00 -4.72128153e+00 4.19820070e+00
      1.91249073e+00 -7.91825914e+00 -1.03774471e+01 -8.24510384e+00
      -1.31188071e+00 1.73058644e-01 -2.35088181e+00 5.41733563e-01
      7.62790823e+00 1.58174925e+01 2.57927918e+00 -6.99855661e+00
      2.98946476e+00 -9.11060524e+00</_>
    <_>
      -5.03359175e+00 -9.17778683e+00 2.56718254e+00 -7.39408016e+00
      -1.09228144e+01 8.67767143e+00 1.38843660e+01 1.34707441e+01
      1.26293936e+01 6.51428032e+00 1.41339004e+00 -4.53844738e+00
      -6.57198143e+00 -1.02304010e+01 -8.30752754e+00 -1.12882748e+01
      -4.38459730e+00 -1.00965548e+00 3.93264341e+00 6.86522913e+00
      1.52544508e+01 8.14887714e+00 -1.11728725e+01 -2.83175325e+00
      3.32683873e+00 -3.82128406e+00</_>
    <_>
      -2.46209407e+00 -7.13622379e+00 -1.27460423e+01 -7.89918041e+00
      -4.95916939e+00 1.04206028e+01 1.08026638e+01 1.24865046e+01
      1.38273907e+01 4.86516380e+00 3.89591002e+00 1.18240058e+00
      1.48629308e+00 -1.69172394e+00 -3.85974693e+00 -1.02073317e+01
      -6.02507257e+00 -2.04253554e+00 1.70358467e+00 1.18043888e+00
      5.53544760e+00 7.36251259e+00 -2.94744182e+00 -3.35494709e+00
      3.68665171e+00 -1.31040459e+01</_>
    <_>
      -6.07191086e+00 -7.97656631e+00 -4.88735151e+00 -4.81223059e+00
      -1.39917946e+01 1.63829041e+00 1.08491888e+01 1.24576187e+01
      1.47297401e+01 9.47685051e+00 3.70313740e+00 3.01526427e+00
      -3.56492448e+00 -1.47820511e+01 -6.29459524e+00 -1.28567505e+01
      -3.94446015e+00 2.91841578e+00 1.56436813e+00 3.80238914e+00
      1.96183574e+00 -9.86905193e+00 -5.14751196e-01 5.08259201e+00
      2.32490635e+00 1.60418396e+01</_>
    <_>
      -4.18750000e+00 2.56249976e+00 3.37499952e+00 -8.12500000e+00
      -8.68750000e+00 -3.62500072e+00 3.12500060e-01 1.12500048e+00
      2.12500095e+00 4.99999732e-01 -2.31250024e+00 -3.74999940e-01
      2.31249952e+00 -4.75000000e+00 -5.93749905e+00 -1.13750000e+01
      -1.74999988e+00 2.06250000e+00 5.62499940e-01 8.74999940e-01
      2.62500000e+00 2.24999976e+00 2.25000024e+00 -2.50000149e-01
      1.68750000e+00 2.67500057e+01</_>
    <_>
      -5.50538921e+00 -4.79538822e+00 3.30441326e-01 -2.29446039e-01
      -1.67175102e+01 5.99246994e-02 9.33537292e+00 1.16985836e+01
      1.09307632e+01 9.58316994e+00 2.92358232e+00 -4.36835098e+00
      2.93585062e+00 -1.05016012e+01 -9.68583012e+00 -1.97105846e+01
      -1.08015776e+01 -1.86514705e-01 2.38521934e+00 2.67385364e+00
      4.02600384e+00 9.22885895e+00 7.22930765e+00 4.39698362e+00
      3.19534922e+00 1.56892204e+00</_>
    <_>
      -8.16451168e+00 -1.69729576e+01 -1.16185350e+01 2.81250095e+00
      -9.89798832e+00 2.93180442e+00 -1.00405383e+00 6.20730734e+00
      1.30560350e+01 1.10453091e+01 8.54279518e+00 1.53142452e+01
      1.49038897e+01 -6.95895004e+00 -5.13320923e+00 -9.12423038e+00
      -5.79772139e+00 9.72855031e-01 -1.26400852e+00 -3.57979250e+00
      -3.94822550e+00 -1.79279518e+00 1.01365986e+01 4.40137482e+00
      1.18750083e+00 -6.25523615e+00</_>
    <_>
      -1.44180584e+01 -6.34375477e+00 -1.27023039e+01 -1.37849855e+01
      -1.36891537e+01 5.42626321e-01 8.20762253e+00 1.50004978e+01
      1.31798630e+01 8.95118117e-01 -1.51315260e+00 4.27311707e+00
      1.25018415e+01 -7.35439205e+00 -2.37909722e+00 -1.16856117e+01
      -8.18774605e+00 1.68034720e+00 4.38937235e+00 6.19233227e+00
      1.63130550e+01 1.34519997e+01 -4.56947327e+00 -4.93707418e+00
      1.70762157e+00 3.22938037e+00</_>
    <_>
      -5.93200159e+00 -9.60619545e+00 -4.82984209e+00 1.43665619e+01
      3.73363185e+00 1.94719338e+00 2.12401128e+00 2.45793962e+00
      5.65043449e+00 4.04352951e+00 3.12663746e+00 4.55978203e+00
      5.55377007e+00 -2.10004544e+00 1.97670415e-01 -1.64891100e+00
      -1.44935000e+00 7.90636986e-02 -1.21249044e+00 -7.68318057e-01
      5.17782331e-01 -1.13265800e+00 -1.64015934e-01 -2.57351828e+00
      3.46049404e+00 -2.04011497e+01</_>
    <_>
      -8.77345562e+00 3.48397422e+00 -2.13718843e+00 -2.43861747e+00
      -7.40724421e+00 -5.20532274e+00 -2.13446903e+00 -4.08663464e+00
      -4.43545866e+00 -3.07264996e+00 -3.17463088e+00 -2.43230391e+00
      3.19065595e+00 -1.54399788e+00 1.57332981e+00 -1.87883699e+00
      2.73081779e+00 1.88830590e+00 -1.28836438e-01 2.26014924e+00
      6.28812075e+00 8.56114006e+00 -7.18410015e+00 1.96299541e+00
      2.39214206e+00 2.17021141e+01</_>
    <_>
      -7.97981405e+00 -2.77631545e+00 -2.29225826e+00 3.61296844e+00
      -1.75663109e+01 -6.19096422e+00 1.87233233e+00 2.79839778e+00
      5.31465483e+00 6.75626087e+00 1.18569422e+00 2.07147765e+00
      -9.18684721e-01 -1.02932539e+01 4.35882688e-01 -1.34375057e+01
      -6.83460188e+00 3.29867435e+00 2.07491755e+00 2.37737393e+00
      9.66337299e+00 9.46063423e+00 -5.78763294e+00 5.53058386e-01
      4.70360041e+00 1.78980312e+01</_>
    <_>
      -6.99634790e+00 -9.05235100e+00 -2.30180788e+00 1.13827932e+00
      -8.62609291e+00 5.30911624e-01 4.82190371e+00 1.38497553e+01
      1.33483658e+01 7.63291836e+00 -4.87916613e+00 -4.42835569e+00
      -1.40573382e+00 -1.60009384e+01 -5.13441086e+00 -1.11878386e+01
      -4.34024620e+00 1.04111230e+00 4.31141281e+00 5.28114080e+00
      1.90086422e+01 1.81350899e+01 1.90176797e+00 -1.41915913e+01
      2.54166508e+00 -4.99807453e+00</_>
    <_>
      3.89367199e+00 4.77863789e+00 4.93401766e+00 1.30380487e+01
      3.69746685e+00 -2.22840166e+00 -8.66708660e+00 -1.17003937e+01
      -8.73077011e+00 -1.05099669e+01 -1.12541132e+01 -6.44920778e+00
      1.17318830e+01 -7.25411224e+00 -7.98251295e+00 -1.19901094e+01
      -3.34580588e+00 1.88140941e+00 1.08995271e+00 4.17816401e+00
      3.94802046e+00 7.24066401e+00 1.17739706e+01 1.73599601e+00
      9.02452230e-01 1.52881203e+01</_>
    <_>
      -2.64691281e+00 -4.59090662e+00 -4.74350500e+00 3.72321606e+00
      -2.74358928e-01 1.39366615e+00 4.46753073e+00 2.39448118e+00
      5.64772940e+00 6.92451191e+00 1.37743139e+00 1.63392603e+00
      -7.34254503e+00 -1.69683609e+01 -7.96753740e+00 -8.30601406e+00
      -2.12662363e+00 -2.65419364e-01 -2.43506119e-01 1.84659290e+00
      2.84091425e+00 4.58442068e+00 1.27110529e+00 4.57061720e+00
      -6.56654000e-01 1.34562063e+01</_>
    <_>
      -1.33687887e+01 -1.21735878e+01 3.13676620e+00 1.24849977e+01
      -1.18359776e+01 5.60942459e+00 7.89465857e+00 8.65373230e+00
      1.03711576e+01 8.60265350e+00 2.30656195e+00 4.14321041e+00
      4.69188690e+00 2.78194594e+00 5.58005047e+00 -9.02541351e+00
      -7.69837809e+00 -9.46972752e+00 -6.36136007e+00 -1.24143422e+00
      6.07385492e+00 -1.38751340e+00 -3.24894756e-01 -1.91440916e+00
      5.95046711e+00 -1.34798765e+01</_>
    <_>
      -3.48609066e+00 4.41859484e+00 3.62970400e+00 -5.00000298e-01
      -7.14831686e+00 -2.96747851e+00 -1.50499594e+00 3.74637651e+00
      3.35638785e+00 2.54996359e-01 -7.97384787e+00 -8.62216377e+00
      -3.37470746e+00 -9.02302361e+00 -4.37637329e+00 -6.43025303e+00
      -7.36383498e-01 3.33082008e+00 1.88832378e+00 2.47276735e+00
      3.35442901e+00 4.77968597e+00 2.54359460e+00 4.39165294e-01
      2.17888021e+00 1.97499199e+01</_>
    <_>
      -7.39541960e+00 -4.44691563e+00 5.36129999e+00 1.19831657e+01
      8.52080360e-02 4.24710006e-01 5.99152470e+00 8.83030701e+00
      1.17513390e+01 8.53575897e+00 -9.41571331e+00 -3.81557226e+00
      -4.62686396e+00 -1.60122910e+01 -9.72271919e+00 -1.15185699e+01
      -7.16562843e+00 -3.58270979e+00 -5.35217905e+00 -3.21475387e+00
      4.52701283e+00 1.14743271e+01 3.95210075e+00 1.08525896e+00
      4.82580280e+00 7.44152069e+00</_>
    <_>
      -8.91233730e+00 4.08929062e+00 9.93136168e-01 -6.91521025e+00
      -2.73718719e+01 1.46739709e+00 -3.50412309e-01 6.44392204e+00
      7.65053689e-01 -4.27946091e+00 -2.46517491e+00 3.01914406e+00
      8.56874275e+00 5.75013638e+00 1.27499495e+01 1.52311468e+00
      2.40282798e+00 -3.26035351e-01 -4.79062051e-01 2.02456856e+00
      7.97800541e+00 8.31133652e+00 6.04325294e+00 -4.79033375e+00
      -3.80820251e+00 -1.24317656e+01</_>
    <_>
      -1.38401583e-01 -1.55974483e+00 3.21856093e+00 3.83015895e+00
      -1.87041550e+01 -5.59631729e+00 2.70515943e+00 2.69175839e+00
      1.71555674e+00 2.08015966e+00 -2.46705937e+00 -2.12650228e+00
      -4.69814926e-01 -6.73471832e+00 -2.02955866e+00 -6.55636215e+00
      -4.01490402e+00 -6.78356707e-01 1.11310101e+00 3.65856677e-01
      -3.90530854e-01 9.10358047e+00 7.16244888e+00 3.24398786e-01
      1.34143353e-01 1.70215397e+01</_>
    <_>
      -2.74339437e+00 -6.04172707e+00 5.65832949e+00 7.19164944e+00
      -1.26309471e+01 -5.82376957e+00 -8.71541309e+00 -1.22970819e+01
      -1.40593710e+01 -1.05258245e+01 -4.01896536e-01 1.07881002e+01
      1.88815708e+01 1.25561833e+00 9.74060345e+00 -1.28875399e+00
      3.21580911e+00 3.80974603e+00 2.10732841e+00 5.03819466e+00
      1.37891426e+01 3.98727322e+00 -5.77215481e+00 -9.69434547e+00
      4.97210026e+00 -4.40781206e-01</_>
    <_>
      -4.17012644e+00 -7.91755557e-01 1.79745412e+00 1.28105390e+00
      -1.60584450e+01 1.22485332e+01 1.20251474e+01 -2.30722260e+00
      -1.16833391e+01 -1.43544807e+01 -2.05161343e+01 3.03969175e-01
      1.41635084e+01 2.73590970e+00 4.10630035e+00 -6.03315496e+00
      6.68587685e-01 -1.36484563e+00 -1.42041242e+00 5.32514000e+00
      1.44675789e+01 5.07456303e+00 8.89781952e+00 1.39126217e+00
      5.31228018e+00 -1.10991859e+01</_>
    <_>
      -1.39754696e+01 7.98608017e+00 1.36633263e+01 7.40617132e+00
      -1.78140640e+01 5.81889868e+00 -2.24257660e+00 -1.34240751e+01
      -9.90506077e+00 -3.66933560e+00 1.12746072e+00 1.08220282e+01
      1.37511625e+01 -4.88498306e+00 7.12369776e+00 -4.80677128e+00
      2.20105577e+00 6.44858122e-01 1.70548522e+00 -3.71545815e+00
      4.62415123e+00 6.79651356e+00 1.48523188e+00 3.12755156e+00
      8.92224669e-01 -1.47380934e+01</_>
    <_>
      -2.85948277e+00 -3.85447121e+00 7.68366814e+00 2.07381496e+01
      -1.20242538e+01 -5.27523041e+00 -5.08738279e+00 -2.54986691e+00
      4.79607964e+00 1.81848741e+00 -2.90133923e-01 5.59305954e+00
      1.94453087e+01 -4.67962646e+00 2.73485708e+00 -1.42723389e+01
      -7.53656197e+00 -8.61634445e+00 -8.91656494e+00 -9.74263763e+00
      -8.79639626e+00 -7.49645901e+00 1.10144787e+01 8.09274101e+00
      7.35662603e+00 1.27242956e+01</_>
    <_>
      -4.99295187e+00 -4.71051870e-04 4.82330847e+00 2.10009384e+00
      -1.60390053e+01 -4.66118383e+00 3.58787584e+00 1.57185154e+01
      1.80418243e+01 7.39332676e+00 -9.59821510e+00 -4.30921030e+00
      7.37265062e+00 -1.04436092e+01 5.90696394e-01 -4.79088354e+00
      -3.27208614e+00 6.19407892e+00 1.18750000e+00 -1.67951119e+00
      -6.07283926e+00 6.76503801e+00 8.31861019e+00 -4.19643074e-01
      3.73872209e+00 -1.95526295e+01</_>
    <_>
      -5.09880733e+00 2.59880829e+00 6.18486595e+00 9.82675791e-01
      -1.03040457e+01 -2.78436756e+00 -6.29074144e+00 -4.47824192e+00
      -1.80737162e+00 -2.97311497e+00 -8.76898384e+00 -7.49029779e+00
      2.26787782e+00 -1.89606464e+00 3.44193435e+00 -2.19830918e+00
      3.34811479e-01 3.74306500e-01 -6.24998957e-02 1.99805963e+00
      5.53949499e+00 5.82968330e+00 3.36862540e+00 7.77439237e-01
      1.89661741e+00 1.85576477e+01</_>
    <_>
      -1.47175226e+01 -7.49999881e-01 -3.68177009e+00 1.47328091e+01
      -9.64274120e+00 -9.84470654e+00 -6.70414972e+00 -8.42604065e+00
      -1.27565527e+00 -3.92303395e+00 -2.59006619e-01 6.33897638e+00
      1.76176376e+01 7.17849493e+00 8.67931557e+00 2.82206595e-01
      2.85589647e+00 2.53002286e+00 1.05349433e+00 -5.45087337e+00
      1.51746705e-01 4.07396030e+00 5.79667282e+00 -1.46533918e+00
      5.53902864e+00 -1.06894150e+01</_>
    <_>
      -1.24936461e+00 -6.92166150e-01 1.04604120e+01 -2.06404710e+00
      -1.62258129e+01 -5.19490719e+00 -4.19119120e+00 -9.02524757e+00
      -1.90534735e+00 6.25560188e+00 8.67377090e+00 8.06892109e+00
      7.55799532e+00 1.80436254e+00 4.92428780e+00 3.80084777e+00
      4.05035543e+00 2.09699559e+00 1.68509662e+00 1.16298950e+00
      5.57181787e+00 4.41087818e+00 -4.21356869e+00 -7.91432333e+00
      -8.28662634e-01 -1.70196953e+01</_>
    <_>
      -1.00707245e+01 -8.46467209e+00 -5.62313747e+00 7.12853479e+00
      7.24884558e+00 -1.58755147e+00 -4.93351698e+00 4.17439651e+00
      7.44219017e+00 7.16668987e+00 1.34969835e+01 5.85862017e+00
      7.93962002e+00 5.95343113e+00 -2.22893119e+00 -3.20927525e+00
      3.17189604e-01 2.50796580e+00 4.41482782e-01 4.07117224e+00
      -1.46653378e+00 -1.26837759e+01 -4.74813843e+00 -1.92112041e+00
      -5.25468922e+00 -1.15550518e+01</_>
    <_>
      2.06695127e+00 -4.95229006e+00 -2.56583881e+00 3.37754822e+00
      5.84987211e+00 -4.69198376e-02 -1.63645136e+00 5.84319305e+00
      8.95451641e+00 5.21819401e+00 4.68304920e+00 -8.88200092e+00
      -8.34319496e+00 -1.12795801e+01 1.73298371e+00 -3.41491890e+00
      3.83317757e+00 3.06361318e+00 3.04993558e+00 9.52624226e+00
      8.64090347e+00 -6.54580772e-01 -5.31361341e+00 -8.17048454e+00
      3.59208059e+00 -1.41723776e+01</_>
    <_>
      -1.50182953e+01 -1.30445919e+01 -7.60371733e+00 7.42851543e+00
      1.38503456e+01 6.40809917e+00 1.54433882e+00 9.41209221e+00
      1.33938551e+01 1.31102543e+01 7.31040144e+00 2.70654321e+00
      5.47514963e+00 -5.67990303e+00 -4.53496981e+00 -2.10808009e-01
      6.36779308e-01 1.47283757e+00 -1.29954278e-01 2.50586009e+00
      -5.21714973e+00 -4.89385366e+00 -3.43092680e+00 -2.75585985e+00
      -9.34274769e+00 -1.33922863e+01</_>
    <_>
      -1.66778812e+01 -9.97670937e+00 -1.68549328e+01 4.84385586e+00
      1.55171022e+01 7.61143494e+00 -4.12916183e+00 4.97701120e+00
      1.31090355e+01 1.30708466e+01 9.72994900e+00 5.62423849e+00
      1.40992448e-01 4.98271656e+00 3.24129963e+00 -2.54630852e+00
      -2.60612750e+00 1.92559898e+00 -2.49318290e+00 -2.22565627e+00
      -9.73986340e+00 -1.14485664e+01 2.13449550e+00 -2.45040774e-01
      -1.04481726e+01 2.48302555e+00</_>
    <_>
      -9.38813114e+00 2.61426139e+00 -3.00199842e+00 -1.89190400e+00
      -3.87845427e-01 -1.25584450e+01 -8.80617237e+00 5.79746485e+00
      8.94591331e+00 1.27072458e+01 8.82113934e+00 4.26451302e+00
      3.75029540e+00 1.06994236e+00 -1.72008264e+00 -4.24839354e+00
      -2.19392926e-01 1.98897326e+00 1.54518735e+00 4.21782923e+00
      -7.04381824e-01 -4.25216103e+00 4.78217125e+00 3.71556115e+00
      5.23004591e-01 -1.75645924e+01</_>
    <_>
      -6.81250048e+00 -4.62499905e+00 9.37500179e-01 1.05625010e+01
      1.48125019e+01 -5.81250000e+00 -4.81250048e+00 1.12500048e+00
      4.81249952e+00 1.26250029e+01 3.68750072e+00 -1.93750000e+01
      -1.87500143e+00 4.06250048e+00 -8.62500095e+00 -5.06249952e+00
      2.93749905e+00 -2.06250024e+00 -7.18749952e+00 -6.56250000e+00
      -1.18749917e+00 3.18750000e+00 5.12499952e+00 3.56250000e+00
      2.93750024e+00 3.62500548e+00</_>
    <_>
      -5.68750095e+00 -6.56250000e+00 -7.62500000e+00 6.81250048e+00
      7.25000048e+00 -1.06250000e+00 -6.87500048e+00 6.06250000e+00
      1.09375000e+01 9.43750000e+00 9.43750095e+00 4.62500048e+00
      2.12499928e+00 0. -2.93749976e+00 -1.87499687e-01 3.56250000e+00
      1.12500012e+00 -2.49999866e-01 -9.37500179e-01 -5.81249952e+00
      -7.37500000e+00 -2.81250024e+00 -1.74999988e+00 -5.37499952e+00
      -6.12499189e+00</_>
    <_>
      -6.60163736e+00 -2.75868416e-01 -1.16478767e+01 -6.81995821e+00
      2.49809933e+00 -9.71038151e+00 -1.37017918e+01 4.14474154e+00
      1.60229034e+01 1.60365257e+01 6.17594051e+00 5.50727725e-01
      4.80681086e+00 7.02798986e+00 9.75287855e-01 2.78007686e-01
      7.39317656e+00 9.23198032e+00 7.26327229e+00 7.64686203e+00
      -3.62112164e+00 -1.75845566e+01 -1.51947536e+01 -6.18486023e+00
      -6.45069122e+00 7.74117899e+00</_>
    <_>
      -1.22382212e+01 -5.43607426e+00 -8.13734627e+00 -2.97207445e-01
      1.32408246e-01 -5.95552549e-02 -1.57969296e+00 1.06535892e+01
      1.52210283e+01 1.07776384e+01 8.57190323e+00 4.04331255e+00
      3.89371157e+00 -4.14665651e+00 -1.25294483e+00 -3.40007639e+00
      4.33272982e+00 3.71656489e+00 1.66536832e+00 1.47245371e+00
      -3.26624203e+00 -6.20279121e+00 -7.49049604e-01 -2.99363494e+00
      -2.52118063e+00 -1.22000237e+01</_>
    <_>
      -3.10320973e+00 1.28353512e+00 -5.46140718e+00 -1.04511814e+01
      -4.48006010e+00 2.13211441e+00 2.39129043e+00 5.19998932e+00
      5.96876001e+00 3.71317530e+00 -1.34059235e-01 -9.50235176e+00
      -6.00875616e+00 -2.15309668e+00 2.11818242e+00 2.36905217e+00
      1.42850161e+00 2.78123307e+00 3.76553446e-01 3.10263991e+00
      -7.25968659e-01 -4.99865198e+00 -3.57146406e+00 -1.84699166e+00
      -2.71072245e+00 2.22828979e+01</_>
    <_>
      -6.80097961e+00 3.69667959e+00 -8.92578411e+00 -1.18117199e+01
      -7.41074133e+00 -4.98984575e+00 -1.49999976e+00 7.36543083e+00
      9.62382984e+00 8.84551144e+00 6.80176067e+00 3.55371070e+00
      -5.07814407e-01 5.01621294e+00 3.55293059e+00 4.45429850e+00
      8.97969055e+00 6.42754078e+00 3.39218831e+00 6.87304926e+00
      5.96289301e+00 -1.23630896e+01 -1.76576214e+01 -5.55234528e+00
      -3.53535175e+00 -3.49042583e+00</_>
    <_>
      -1.49678040e+01 -2.73969173e+00 -3.93396091e+00 6.22745991e+00
      6.54865360e+00 1.13627017e+00 1.95199978e+00 1.58824205e+01
      1.93788815e+01 1.51356506e+01 7.84826851e+00 -1.78319120e+00
      -2.40561485e+00 -9.76807177e-01 -1.80896080e+00 -8.20007515e+00
      -3.69780779e+00 -9.18138313e+00 -5.53930759e+00 5.15561342e+00
      8.62049866e+00 -6.58119106e+00 -6.29349899e+00 -7.81669140e+00
      -5.31153727e+00 -6.64819336e+00</_>
    <_>
      -2.02311916e+01 -5.99450541e+00 -9.51169968e+00 5.09294224e+00
      9.01247501e+00 -3.91248751e+00 -7.20618057e+00 2.92890310e+00
      3.46639228e+00 1.14515276e+01 1.43929682e+01 1.79841018e+00
      2.48513365e+00 -7.31192708e-01 -2.90776968e+00 2.62034607e+00
      9.14296722e+00 1.90001309e+00 -5.44997454e+00 -3.68123102e+00
      -5.08906412e+00 -8.85153866e+00 -3.04453206e+00 -5.72421122e+00
      -2.49224305e-01 1.82927380e+01</_>
    <_>
      -9.92966235e-01 -5.13772440e+00 -4.33485508e+00 1.41906023e+00
      5.68477869e+00 4.70222592e-01 -2.81895852e+00 3.36432195e+00
      7.09958124e+00 8.36071777e+00 6.31364059e+00 6.40512323e+00
      5.47118425e+00 2.42301583e+00 -1.15013197e-01 -1.03606761e+00
      3.50166106e+00 1.24248874e+00 -8.92060935e-01 -2.12612700e+00
      -3.51428819e+00 -7.56348515e+00 -3.63102126e+00 -9.21072602e-01
      -3.88221431e+00 -1.47899351e+01</_>
    <_>
      -2.30625000e+01 -8.43749905e+00 -7.25000048e+00 4.31249952e+00
      1.13125010e+01 -1.37500060e+00 -4.50000000e+00 1.25624981e+01
      1.31250000e+01 1.14375010e+01 -2.50000745e-01 -9.93750191e+00
      -1.18750203e+00 -4.12500000e+00 -3.62499976e+00 -9.81249905e+00
      1.13124990e+01 5.62500000e+00 1.25000024e+00 -8.12500060e-01
      -2.81249928e+00 -2.18749976e+00 -1.12500012e+00 -3.37500000e+00 0.
      1.29375143e+01</_>
    <_>
      -1.51772881e+00 -4.47242069e+00 -1.29832544e+01 -1.19259472e+01
      3.14201444e-01 -6.24998957e-02 2.27614269e-01 7.32449770e+00
      7.60601664e+00 6.89899635e+00 7.10198736e+00 5.13413239e+00
      3.50743127e+00 4.16108513e+00 -2.91278392e-01 -1.98961198e-01
      3.33022857e+00 2.97761464e+00 4.81736474e-02 2.76029706e+00
      -2.77865291e+00 -1.55944653e+01 -3.32279658e+00 -9.54691708e-01
      -3.48907542e+00 6.19949913e+00</_>
    <_>
      -2.21101356e+00 -8.50999641e+00 -1.54800472e+01 -1.41683702e+01
      9.32915390e-01 5.70396042e+00 3.99090314e+00 1.29363298e+01
      8.87999916e+00 4.19589949e+00 1.09350634e+00 -7.09278107e-01
      7.46176779e-01 4.60901409e-02 -2.45464015e+00 4.30644274e+00
      9.56778526e+00 6.39494991e+00 2.84337997e+00 7.30384684e+00
      7.55673981e+00 -8.46062946e+00 -1.60210667e+01 -9.46202660e+00
      -3.40954989e-01 1.31909645e+00</_>
    <_>
      3.85543871e+00 -6.09071791e-01 -1.03556232e+01 -5.62397194e+00
      -7.54778337e+00 -7.24412918e+00 -6.78203917e+00 6.10925579e+00
      6.90582752e+00 1.18140793e+01 1.37785912e+01 7.54778337e+00
      -6.18265629e+00 -1.72559571e+00 -8.61912823e+00 -1.99031150e+00
      6.00745010e+00 7.77961779e+00 3.50987267e+00 4.54638779e-01
      -6.10180616e+00 -8.53446102e+00 -6.14232302e+00 3.43144685e-01
      -8.57982254e+00 1.79330330e+01</_>
    <_>
      -5.11941576e+00 -7.71538687e+00 -1.12453241e+01 -2.03191280e+00
      3.88193321e+00 4.54426003e+00 4.39136124e+00 9.51561451e+00
      1.19364080e+01 7.47473764e+00 6.55360079e+00 7.13821554e+00
      5.30923128e+00 -3.83001375e+00 -3.84086895e+00 -3.64264369e+00
      4.13038701e-01 2.90492237e-01 -3.50688696e-02 1.91985834e+00
      -1.34947574e+00 -7.48878717e+00 -7.79808617e+00 -4.69125128e+00
      7.55125463e-01 -5.33563900e+00</_>
    <_>
      -1.11027861e+01 -8.51006031e+00 -5.33658648e+00 -9.00928211e+00
      -2.64612365e+00 9.72154796e-01 3.48561883e+00 1.23766069e+01
      1.55683146e+01 9.86363697e+00 5.26442194e+00 8.76835060e+00
      4.15479755e+00 5.50708771e-01 -6.44265366e+00 -2.44493079e+00
      6.18288612e+00 3.67342758e+00 -5.29091477e-01 4.41514111e+00
      1.92074716e+00 -1.28875732e+00 -6.56131268e+00 -9.33163261e+00
      -3.71932578e+00 -1.02742605e+01</_>
    <_>
      -1.13917208e+00 -6.52342033e+00 -8.57900524e+00 -1.10101118e+01
      -4.71054554e+00 1.32399166e+00 4.69540167e+00 1.32135973e+01
      1.38787861e+01 8.13648605e+00 7.00161934e+00 3.93106431e-01
      -4.01469517e+00 6.70667946e-01 -3.27087426e+00 -4.00425863e+00
      2.74970579e+00 2.11658883e+00 4.09050369e+00 8.12196922e+00
      8.13011742e+00 -6.55094481e+00 -1.71035786e+01 -5.68736506e+00
      -2.88390183e+00 9.55337644e-01</_>
    <_>
      -1.66352785e+00 -6.17920971e+00 -1.13448105e+01 -7.35125351e+00
      -8.71303856e-01 1.36508667e+00 3.92528892e+00 9.10265160e+00
      1.17375650e+01 8.32151413e+00 7.02861595e+00 2.62292719e+00
      2.63468790e+00 1.95273161e+00 -9.38626677e-02 -4.25369453e+00
      1.57588351e+00 3.88608634e-01 1.88653600e+00 3.06804299e+00
      9.51108992e-01 -4.90591240e+00 -6.28460789e+00 -3.30420971e+00
      -1.66397822e+00 -8.64486980e+00</_>
    <_>
      -3.55247331e+00 -5.21268845e+00 -9.18721867e+00 -6.15425014e+00
      -5.38466978e+00 -1.40250039e+00 2.65206695e+00 1.00814800e+01
      1.06638813e+01 7.65942430e+00 7.42125273e+00 5.32362604e+00
      -2.86743808e+00 -2.20591974e+00 -1.90301204e+00 6.39727533e-01
      1.78771996e+00 3.79746604e+00 2.57167149e+00 4.08885145e+00
      -1.76808909e-01 -1.55599079e+01 -8.12072086e+00 -9.44882981e-04
      -2.95018387e+00 7.99156952e+00</_>
    <_>
      -3.73459578e+00 2.02928647e-01 -4.07547665e+00 -1.25587626e+01
      -3.10442901e+00 -1.50274861e+00 -6.45763934e-01 3.67681217e+00
      4.54380846e+00 4.37458086e+00 2.74998808e+00 3.40223622e+00
      -7.42538273e-01 2.10700297e+00 -5.46305847e+00 -2.70768666e+00
      1.72450352e+00 3.76604986e+00 2.81671691e+00 3.15456009e+00
      1.25146902e+00 -8.30413532e+00 -6.37570143e+00 -3.81660032e+00
      -1.90550637e+00 2.11663513e+01</_>
    <_>
      -4.04398537e+00 -6.26168156e+00 -1.05236368e+01 -5.66564608e+00
      -1.15532818e+01 -2.54324889e+00 3.66087532e+00 1.49897614e+01
      1.41759243e+01 1.38723383e+01 1.12304411e+01 2.05605483e+00
      1.81402087e+00 -7.24643111e-01 -6.27953196e+00 -8.43214512e+00
      -4.19410801e+00 2.63036299e+00 4.46883917e+00 7.13278961e+00
      1.50652885e+00 -9.62224293e+00 -4.24785280e+00 -2.80627191e-01
      -3.79799485e+00 6.32685900e-01</_>
    <_>
      -2.16495776e+00 -1.03080883e+01 -1.46419401e+01 -7.19155693e+00
      1.69851398e+00 -1.54142118e+00 -3.53403568e+00 5.90441704e+00
      8.93606091e+00 1.01420488e+01 1.04467754e+01 1.13472881e+01
      7.89337730e+00 3.15407538e+00 -6.51387334e-01 1.83752656e-01
      3.57862926e+00 2.72237611e+00 1.20381105e+00 2.68571877e+00
      -4.61367846e+00 -1.41440630e+01 -3.81552172e+00 -1.30845714e+00
      -4.72366095e+00 -1.25807309e+00</_>
    <_>
      -8.69867897e+00 -5.30770731e+00 -1.19348497e+01 -1.38434610e+01
      -5.91267061e+00 -4.15728807e+00 3.69627297e-01 1.29030142e+01
      1.11046648e+01 5.15146875e+00 6.13627434e+00 5.17636108e+00
      7.79997778e+00 2.21975493e+00 -5.50633430e-01 -3.15997094e-01
      2.75228429e+00 3.45752573e+00 4.25001812e+00 7.14723206e+00
      5.24686766e+00 -5.76451015e+00 -8.54989719e+00 -6.34957457e+00
      -4.02935076e+00 1.69954193e+00</_>
    <_>
      -3.32893920e+00 -7.02178288e+00 -1.02167101e+01 2.63618493e+00
      4.47196484e+00 9.90487933e-02 -9.87817109e-01 2.59012461e+00
      6.88885689e+00 6.17907476e+00 6.09062386e+00 5.63935518e+00
      6.27495241e+00 1.54506195e+00 1.35330558e+00 -2.76450098e-01
      1.93858600e+00 1.68541586e+00 -2.40987480e-01 1.28496361e+00
      -1.58478105e+00 -8.27019691e+00 -4.19601393e+00 -2.25851321e+00
      -1.43274450e+00 -8.86257553e+00</_>
    <_>
      -7.24295712e+00 3.87395412e-01 -9.78556633e+00 -6.52379799e+00
      -2.50465274e+00 -5.46418619e+00 -3.75471997e+00 1.23784840e+00
      7.14244366e-01 1.13109004e+00 3.91660905e+00 7.92504907e-01
      4.59755808e-01 5.87422466e+00 3.46218348e-01 4.93200207e+00
      5.76974678e+00 4.12139750e+00 2.76857972e+00 4.62601614e+00
      3.62867522e+00 -4.52694988e+00 -1.44133806e+01 -2.13235188e+00
      -2.40213919e+00 1.80443935e+01</_>
    <_>
      -7.07693911e+00 -5.02957201e+00 -1.15360327e+01 -5.47283602e+00
      -6.98682928e+00 -6.31642675e+00 -7.99329162e-01 7.58941174e+00
      8.58941269e+00 1.19261665e+01 1.01400089e+01 6.23809528e+00
      -3.82763481e+00 -5.60536623e-01 5.66425979e-01 -1.50126696e+00
      -4.35537070e-01 4.98347378e+00 5.25785255e+00 5.71510887e+00
      5.69338942e+00 -7.21175385e+00 -1.56610327e+01 -4.40919447e+00
      -1.60524309e+00 1.17308130e+01</_>
    <_>
      -3.18736076e+00 -7.80903244e+00 -8.78682327e+00 -1.29181366e+01
      -7.15724087e+00 -2.43144417e+00 -1.27017489e-02 1.59229116e+01
      1.58431931e+01 1.14716110e+01 7.14584446e+00 1.37356782e+00
      -3.65350175e+00 -4.08884430e+00 -1.71304667e+00 -1.34300089e+00
      4.96370888e+00 4.19931269e+00 5.36359215e+00 9.73856640e+00
      1.01135731e+01 -3.39919019e+00 -8.48672962e+00 -1.48304682e+01
      -5.15449715e+00 -1.16385007e+00</_>
    <_>
      1.48840821e+00 -1.94545791e-01 -1.69543228e+01 -5.23818016e+00
      1.74081879e+01 -5.89841127e+00 -1.21465950e+01 -2.54886627e+00
      -6.98861539e-01 5.01886559e+00 7.25477314e+00 2.09045386e+00
      1.00977278e+01 7.70363617e+00 -5.87295580e+00 5.52952886e-01
      8.92613697e+00 8.37750149e+00 6.43295527e+00 1.14193201e+01
      -2.51636457e+00 -2.10634136e+01 -7.87522888e+00 -5.36590958e+00
      -1.08450012e+01 1.04477348e+01</_>
    <_>
      -2.54574823e+00 -6.00628901e+00 -1.20422039e+01 -4.38309097e+00
      4.42553663e+00 1.49804807e+00 1.02079475e+00 7.03559256e+00
      8.74210072e+00 1.00410080e+01 8.78605175e+00 4.16448593e+00
      -7.41917896e+00 -8.15704536e+00 -6.79683447e+00 -1.64488065e+00
      2.79246640e+00 2.55279160e+00 2.44513416e+00 4.15372562e+00
      8.14454973e-01 -7.92062759e+00 -8.33884621e+00 4.08794314e-01
      -4.52483606e+00 1.08986025e+01</_>
    <_>
      -8.35340500e+00 -8.71059990e+00 -9.14143467e+00 5.83180904e-01
      -2.65946746e+00 -2.35984683e-01 4.78633463e-01 9.93658638e+00
      1.15337830e+01 1.16825686e+01 9.46772289e+00 7.41946602e+00
      3.51689005e+00 8.16946602e+00 4.89545298e+00 -1.73265135e+00
      4.05678838e-01 -2.46840739e+00 -1.70461965e+00 3.03446817e+00
      2.78034080e-02 -1.54083252e+01 -9.37431431e+00 -3.64878488e+00
      -2.52068067e+00 -5.19301462e+00</_>
    <_>
      -4.52232409e+00 2.68229294e+00 -3.90039301e+00 -7.96350861e+00
      -2.24267483e+00 -2.00031686e+00 -2.63607216e+00 6.90588665e+00
      5.92971182e+00 5.10054636e+00 -2.17995548e+00 -6.20616102e+00
      -6.22610521e+00 -2.62750363e+00 -5.08086729e+00 -2.42706135e-01
      2.75979757e+00 6.21458578e+00 4.75616264e+00 5.05105305e+00
      2.00026917e+00 -5.66264439e+00 -6.30567217e+00 -3.36551929e+00
      -1.32330346e+00 2.10854321e+01</_>
    <_>
      -8.19822121e+00 -9.62242603e+00 -7.97573566e+00 4.10284519e+00
      7.97923803e+00 5.85583746e-01 4.09094429e+00 1.67483540e+01
      1.84899578e+01 1.59589396e+01 2.73624229e+00 1.77354944e+00
      -3.44775605e+00 -8.81785965e+00 -1.11499414e+01 -3.98717046e+00
      -1.67070460e+00 -4.01586652e-01 -3.17863750e+00 9.32649244e-03
      1.44729090e+00 -5.20615244e+00 -9.50768185e+00 -4.57672215e+00
      -6.47155702e-01 4.46548367e+00</_>
    <_>
      -6.10878611e+00 -1.57536650e+00 -9.05409431e+00 -6.77479172e+00
      -1.63579502e+01 -3.17464495e+00 -1.95994627e+00 6.12929773e+00
      2.75001597e+00 4.74695873e+00 6.97611761e+00 5.35505629e+00
      5.99923182e+00 1.07403212e+01 9.88363457e+00 5.56999493e+00
      8.65629196e+00 3.55082273e+00 1.79968095e+00 4.97996140e+00
      1.38679218e+00 -6.50932646e+00 -4.38706017e+00 -7.29518270e+00
      -8.03877163e+00 -7.28824520e+00</_>
    <_>
      -1.78598320e+00 -2.43824601e+00 -3.46286726e+00 -6.24068880e+00
      -1.84446774e+01 -5.70791960e+00 2.16399741e+00 5.33126020e+00
      2.39789081e+00 8.43734455e+00 6.18996668e+00 1.10936069e+00
      -5.29373944e-01 -1.23912418e+00 -3.58335233e+00 -1.44671977e+00
      -5.44632077e-01 3.55843091e+00 4.46021652e+00 2.04468417e+00
      -2.70569944e+00 -9.09834087e-01 -2.05511546e+00 -4.44466877e+00
      -4.15066910e+00 2.39964199e+01</_>
    <_>
      -2.62481356e+00 -7.16798735e+00 -7.55240345e+00 -4.31732988e+00
      -2.19057059e+00 -4.50060987e+00 -7.84932089e+00 -4.54066706e+00
      -4.52634287e+00 5.87265074e-01 6.49739981e+00 1.24255104e+01
      1.34260368e+01 7.44960070e+00 6.88458204e+00 4.60798264e+00
      6.77084303e+00 5.92954683e+00 4.03278542e+00 7.22872925e+00
      6.58624411e+00 -1.07631063e+01 -1.36667709e+01 -1.06198263e+01
      -1.92611027e+00 -1.80662349e-01</_>
    <_>
      -3.53103065e+00 -4.42952347e+00 -1.14298620e+01 -6.88764334e+00
      -4.59596157e+00 4.75355005e+00 3.78978539e+00 5.21177101e+00
      8.51508379e-01 -3.90447474e+00 -6.21697426e+00 2.84751868e+00
      1.11460590e+01 1.37495623e+01 7.86104012e+00 1.96853149e+00
      1.27447948e+01 6.24002886e+00 2.56527209e+00 1.10397854e+01
      7.72451401e+00 -1.75246105e+01 -7.76551580e+00 -6.01950359e+00
      -3.30651712e+00 -1.68820972e+01</_>
    <_>
      -1.28651962e+01 2.81290412e+00 -3.57342434e+00 -1.52826357e+00
      -1.28829575e+01 -3.13355178e-01 -3.33525896e+00 -5.77476835e+00
      -2.57321262e+00 6.92447519e+00 1.29830313e+01 1.42131023e+01
      1.03233643e+01 6.71776247e+00 8.39903069e+00 5.76961565e+00
      1.17994604e+01 6.36316347e+00 5.18657446e+00 2.86148715e+00
      -1.71774995e+00 -1.45610542e+01 -1.33200130e+01 -2.55126452e+00
      -8.76299191e+00 -1.05944481e+01</_>
    <_>
      -3.73168468e+00 -6.87985754e+00 -1.09811916e+01 1.24394536e+00
      3.32814127e-01 -6.17265272e+00 -5.79469252e+00 5.66692638e+00
      9.49070644e+00 1.28548927e+01 1.25437841e+01 1.02098608e+01
      1.23688574e+01 7.36929178e+00 2.34518576e+00 -2.97786355e-01
      3.37271285e+00 9.75915670e-01 -8.54822576e-01 1.51056021e-01
      -1.15456409e+01 -2.65895119e+01 -6.31743526e+00 -4.54168588e-01
      -3.43424225e+00 4.12774086e+00</_>
    <_>
      -3.38250256e+00 -3.21048498e+00 -9.50127125e+00 -1.10878849e+01
      -5.70321560e+00 -7.52465200e+00 4.94801372e-01 1.55209732e+01
      1.73539734e+01 1.42298536e+01 2.60179186e+00 2.52546287e+00
      4.09999371e+00 1.59106672e-01 9.13243771e-01 3.98309541e+00
      5.42849302e+00 7.97265720e+00 3.37702656e+00 4.32684660e+00
      -8.82872868e+00 -1.45530376e+01 -4.49128532e+00 -3.91158223e+00
      -5.40407372e+00 -5.38859940e+00</_>
    <_>
      -6.62806320e+00 9.70282733e-01 -3.62806439e+00 -9.59221745e+00
      -4.33088160e+00 -3.70246005e+00 -9.64986515e+00 -1.10860956e+00
      1.75306344e+00 3.66840363e+00 -1.07169032e+00 -5.64067602e+00
      -1.03926647e+00 6.66661453e+00 4.17039347e+00 5.81520605e+00
      5.88076878e+00 4.91355133e+00 3.72334552e+00 5.74928427e+00
      4.18407869e+00 -9.11366272e+00 -8.98902130e+00 -4.22640848e+00
      -2.14139128e+00 2.33672905e+01</_>
    <_>
      -1.16625156e+01 -3.49096990e+00 -8.38966942e+00 -1.34548044e+00
      1.21153247e+00 -6.05565834e+00 -6.25747061e+00 1.50168788e+00
      4.18209267e+00 4.48687983e+00 5.85051107e+00 7.54552603e+00
      1.05071030e+01 1.10347452e+01 5.32263947e+00 3.45556331e+00
      7.41614628e+00 2.98565745e+00 2.33688903e+00 -6.57588303e-01
      -4.01377296e+00 -8.27975845e+00 -4.48400593e+00 -3.68428826e+00
      -2.34866953e+00 -7.16711283e+00</_>
    <_>
      -2.37103987e+00 -1.87500036e+00 -6.44179344e-01 -5.89914131e+00
      -6.03439903e+00 -4.01499701e+00 -4.84634256e+00 -4.14440155e+00
      2.11529922e+00 9.70283127e+00 9.83279324e+00 6.94764614e+00
      5.81768370e+00 5.47201014e+00 4.66391563e+00 4.81790733e+00
      7.63536882e+00 3.48589373e+00 2.19731236e+00 4.02447510e+00
      1.02876937e+00 -7.72156477e+00 -9.88999748e+00 -6.92868948e+00
      -3.84171414e+00 -9.53044224e+00</_>
    <_>
      1.56870632e+01 6.25215816e+00 4.64571524e+00 -4.76574373e+00
      -4.37870789e+00 2.57534027e+00 1.15419805e+00 -1.77466437e-01
      -3.24537897e+00 -5.04612970e+00 -1.03018532e+01 -1.47159081e+01
      -1.52417316e+01 -1.27608004e+01 6.03047752e+00 2.25704479e+00
      4.82920599e+00 -4.53309268e-01 1.78096366e+00 5.35755014e+00
      1.10854368e+01 1.33837996e+01 -1.92463088e+00 -5.14935827e+00
      7.99158621e+00 -4.86952209e+00</_>
    <_>
      3.93749905e+00 4.87499762e+00 4.37499851e-01 -4.06250000e+00
      2.68749976e+00 6.99999952e+00 3.93750024e+00 2.18749976e+00
      1.43750048e+00 -1.81249988e+00 -1.54375000e+01 -7.18750095e+00
      -7.43750095e+00 -1.11250000e+01 -2.68750000e+00 2.68749905e+00
      -2.18750048e+00 -4. -2.31250000e+00 -3.18750000e+00
      -8.12500954e-01 1.41875010e+01 3.87500000e+00 9.37500179e-01
      -2.43750048e+00 1.65000000e+01</_>
    <_>
      -6.51381195e-01 1.56579447e+00 -6.69198942e+00 -6.29885769e+00
      5.70653534e+00 9.09966755e+00 -1.04031682e+00 -4.97901410e-01
      1.97032380e+00 2.30290914e+00 -8.10071754e+00 -3.72571802e+00
      -9.73950672e+00 -2.11121154e+00 5.11765480e+00 1.37395000e+00
      -4.14313316e+00 -5.02757740e+00 -4.37290144e+00 -1.08856401e+01
      -6.65047884e+00 6.14193773e+00 1.00254793e+01 3.80830216e+00
      -6.61119461e-01 2.34858894e+01</_>
    <_>
      6.54840565e+00 1.84160366e+01 1.90318704e+00 -1.57984056e+01
      -1.16923828e+01 -1.70545330e+01 -8.51040936e+00 4.77634478e+00
      3.16912317e+00 2.79656386e+00 -6.77265930e+00 -2.75428271e+00
      -7.65378666e+00 -3.96260118e+00 -2.10159764e-01 -2.89195776e-01
      3.98403890e-02 4.33216661e-01 1.96752965e+00 1.04780748e-01
      2.09681249e+00 1.26635962e+01 1.27420321e+01 9.46384430e+00
      7.81249952e+00 -1.02353973e+01</_>
    <_>
      1.08647585e+01 6.59185743e+00 7.47967958e+00 -7.14167058e-01
      -9.54684079e-01 -3.72459245e+00 -1.15643114e-01 -4.13763618e+00
      -4.77611303e+00 -4.79282665e+00 -1.30393620e+01 -1.38691711e+01
      -5.33883953e+00 -6.94044971e+00 -1.01752019e+00 -9.09125626e-01
      1.32776761e+00 -3.78883338e+00 -4.53134203e+00 -5.65365934e+00
      2.59540629e+00 1.36977224e+01 7.92058372e+00 3.96051002e+00
      6.83978081e+00 1.30259047e+01</_>
    <_>
      3.38395834e+00 -2.20072523e-01 -5.49984550e+00 -6.29682958e-01
      -9.70845819e-01 -3.72836180e-02 -2.96965098e+00 4.99559832e+00
      5.83345556e+00 6.35242748e+00 1.30601692e+00 1.57781625e+00
      -4.27483702e+00 -2.55836558e+00 7.27863729e-01 5.86597061e+00
      5.73295450e+00 -1.39471978e-01 -7.34600127e-01 -4.31693029e+00
      -7.43328094e+00 -1.10668801e-01 -8.53861570e-01 -1.09422827e+00
      -3.45243597e+00 -4.79997993e-01</_>
    <_>
      8.26642036e+00 8.52869892e+00 -5.24272680e-01 -1.09581318e+01
      -6.89249945e+00 -6.40463209e+00 -6.65647936e+00 -1.52595520e+00
      2.67966914e+00 6.78443253e-01 -9.19315815e+00 -5.25297403e+00
      -2.64581823e+00 -2.38745689e+00 2.87154722e+00 1.45147455e+00
      4.43012524e+00 2.18297386e+00 2.91899133e+00 3.80607277e-01
      -1.39497149e+00 7.76031137e-01 -5.15303373e+00 -1.16646647e+00
      1.07271540e+00 2.39181519e+01</_>
    <_>
      -9.99999464e-01 3.87499809e+00 -7.49999952e+00 -1.34999990e+01
      -9.50000095e+00 1.87499976e+00 7.75000000e+00 1.21875000e+01
      1.44375000e+01 7.18750000e+00 -5.12499952e+00 -3.25000024e+00
      -5.68749952e+00 -1.38750000e+01 6.87500000e-01 2.31249952e+00
      7.87499952e+00 2.37500000e+00 1.81250012e+00 -3.56249976e+00
      -1.43750048e+00 8.06250000e+00 1.24999988e+00 -3.68750048e+00
      2.93749976e+00 -6.49999809e+00</_>
    <_>
      1.36696076e+00 3.32825303e+00 2.49618912e+00 -6.41877317e+00
      -6.59707117e+00 5.94330907e-01 3.03108692e+00 7.13196874e-01
      5.94329797e-02 -4.16031420e-01 -6.41877222e+00 -6.35933924e+00
      -6.59707260e+00 -5.34897757e+00 2.31789017e+00 2.37732315e+00
      2.02072477e+00 1.18866235e-01 -1.30752778e+00 5.94331175e-02
      -4.75464940e-01 1.84242570e+00 1.42639434e+00 -5.94329797e-02
      8.32063377e-01 1.74138947e+01</_>
    <_>
      4.65964413e+00 9.91847229e+00 -6.62210798e+00 -2.14317150e+01
      -1.31878347e+01 2.68174499e-01 4.04195118e+00 2.05281901e+00
      1.71450305e+00 2.59918380e+00 -7.26205540e+00 -5.09069014e+00
      -9.25916290e+00 1.16491079e+00 7.69514132e+00 1.09874268e+01
      1.13785610e+01 5.52700329e+00 4.33950329e+00 4.22859812e+00
      9.86038685e+00 -5.54432535e+00 -1.38991098e+01 -4.00118732e+00
      1.81691384e+00 4.04499578e+00</_>
    <_>
      7.57875144e-01 7.75284147e+00 1.81089664e+00 -3.45091701e+00
      -2.29404855e+00 2.90475667e-01 5.66547632e+00 8.22133827e+00
      9.73351669e+00 2.41117144e+00 -1.03321896e+01 -5.54331684e+00
      -1.25433168e+01 -7.56016493e+00 4.49679554e-01 -4.11442471e+00
      -4.72133732e+00 -1.23420343e+01 -8.19931412e+00 -4.55951661e-01
      9.98905849e+00 1.12779312e+01 1.84313166e+00 -4.59276581e+00
      1.85100675e+00 1.40953836e+01</_>
    <_>
      1.92204046e+00 4.31810904e+00 -1.52177632e+00 -4.33953190e+00
      -4.16537094e+00 -7.62278914e-01 -1.57994509e-01 -2.15132451e+00
      -3.51930094e+00 -2.64394808e+00 -6.76263142e+00 -3.21347094e+00
      -2.90764022e+00 -7.48347902e+00 1.27809191e+00 3.17239308e+00
      4.24191618e+00 -2.22120094e+00 -3.81073236e+00 -5.04001665e+00
      8.32147673e-02 6.48418617e+00 2.79739380e+00 -1.77071548e+00
      5.33180094e+00 2.28422680e+01</_>
    <_>
      1.30625000e+01 2.68749905e+00 -8.31249905e+00 -8.87500000e+00
      3.74999940e-01 1.56249964e+00 -3.56250024e+00 7.25000048e+00
      5.93750048e+00 6.25000048e+00 8.12500060e-01 6.56250000e+00
      2.81249976e+00 6.75000000e+00 2.68750072e+00 5.37500000e+00
      5.56250000e+00 6.25000119e-01 -1.68749988e+00 -9.18750000e+00
      -7.81250000e+00 -6.87500000e-01 -4.18750000e+00 5.62499642e-01
      -5.12500048e+00 -1.94374943e+01</_>
    <_>
      1.32877922e+00 4.66860533e+00 5.83154058e+00 -3.41584420e+00
      -4.53670025e+00 -1.10181677e+00 -1.16860971e-01 3.58568335e+00
      4.06176031e-01 -3.71206522e+00 -1.68196983e+01 -1.01170073e+01
      -5.84949446e+00 -9.90647030e+00 5.92296004e-01 -2.30574155e+00
      4.82754421e+00 -1.08968043e+00 -5.17659724e-01 -4.97020435e+00
      1.07340109e+00 1.28100319e+01 5.14142609e+00 7.77180076e-01
      6.15770435e+00 1.72588768e+01</_>
    <_>
      4.76864338e+00 -2.20694035e-01 -9.39391899e+00 -1.78637524e+01
      -3.26345754e+00 2.22627926e+00 3.64622498e+00 3.09141135e+00
      3.67337489e+00 3.13994455e+00 -1.25958860e+00 2.37066650e+00
      -8.57598722e-01 -9.35406268e-01 1.57870781e+00 8.83304417e-01
      3.03249192e+00 8.54343534e-01 -1.03192341e+00 -4.58303034e-01
      -1.44431818e+00 -8.35082245e+00 -6.28898814e-02 7.35631108e-01
      -3.47270429e-01 1.54889231e+01</_>
    <_>
      8.86435318e+00 -3.24879193e+00 -1.08282757e+01 -1.71241131e+01
      -2.42526031e+00 7.97310686e+00 9.31818485e+00 7.03989172e+00
      1.99957848e+00 -2.92036796e+00 -9.71014977e+00 -2.59885621e+00
      -5.06872463e+00 -5.15929365e+00 9.46752548e-01 6.78881311e+00
      7.97896385e+00 2.95167971e+00 1.23826158e+00 2.34336638e+00
      6.99116945e+00 2.21929371e-01 -1.08917656e+01 -5.72618103e+00
      3.88896847e+00 7.15675497e+00</_>
    <_>
      7.83983231e+00 5.15223932e+00 -5.35383582e-01 -5.38323641e+00
      -8.22566032e+00 -4.73105907e+00 -8.42797086e-02 9.37530339e-01
      8.88603985e-01 2.12228513e+00 -9.48389351e-01 -1.18210113e+00
      -6.59245443e+00 -6.38052225e+00 -3.99737716e+00 -1.95385003e+00
      3.20110440e+00 2.05981612e+00 4.48389620e-01 -2.29078221e+00
      -2.07881951e+00 2.82885027e+00 -1.49494037e-01 1.32881916e+00
      -1.31524563e+00 1.90411873e+01</_>
    <_>
      -6.77225053e-01 -4.65115547e+00 -1.52227459e+01 -9.54155636e+00
      3.97828650e+00 1.26011696e+01 1.45077324e+01 1.53783321e+01
      1.19342690e+01 5.52974796e+00 -2.73505592e+00 2.18780875e+00
      -1.12406433e+00 -1.39266281e+01 -4.35911560e+00 -3.62367344e+00
      6.65756464e-01 -1.80320883e+00 -1.30321753e+00 -2.13088608e+00
      -8.32856476e-01 -3.12724352e+00 -7.90142298e+00 -6.73258305e+00
      6.07319546e+00 6.83634281e+00</_>
    <_>
      -2.24999976e+00 3.37499881e+00 -5.43749952e+00 -2.36250000e+01
      -5.31249952e+00 9.37500000e+00 8.93750000e+00 1.58750010e+01
      1.27500000e+01 1.93750024e+00 -1.31874990e+01 3.49999976e+00
      -7.93750095e+00 -8.62500095e+00 -8.74999905e+00 -8.12500358e-01
      6.25000000e+00 2.56250024e+00 4.37499970e-01 3.68750024e+00
      6.24999952e+00 1.68750000e+01 -2.49999976e+00 -9.37500000e+00
      -4.37499851e-01 -3.56249523e+00</_>
    <_>
      7.31340790e+00 -1.24970686e+00 -4.40114117e+00 -2.08129444e+01
      -1.10214548e+01 6.32571554e+00 9.89123249e+00 1.02324362e+01
      8.41206455e+00 4.25372458e+00 -3.09425926e+00 -2.69292498e+00
      -6.90707636e+00 -6.07735205e+00 -2.34303498e+00 3.44755739e-01
      3.35765147e+00 4.95593876e-01 4.12985563e+00 4.38505173e+00
      7.40605688e+00 1.24679780e+00 -1.20795403e+01 -3.57996607e+00
      1.40073502e+00 5.06431723e+00</_>
    <_>
      7.67262411e+00 -1.98206380e-01 -1.51017828e+01 -2.11133232e+01
      -7.12993574e+00 5.37166357e+00 1.00460243e+01 1.36874313e+01
      1.01183958e+01 4.22448587e+00 2.37626493e-01 -4.95897830e-01
      -3.91942430e+00 9.28822383e-02 2.70474172e+00 -4.62180167e-01
      1.37173200e+00 -1.88320374e+00 1.80262816e+00 -1.11025885e-01
      3.16281986e+00 4.94570494e+00 -4.78941917e+00 -3.94570422e+00
      1.64557779e+00 -7.93422079e+00</_>
    <_>
      5.45017338e+00 -6.08433247e-01 -4.09699488e+00 -1.21081829e+01
      -1.13161469e+01 -1.68978751e+00 5.26347589e+00 5.59025621e+00
      5.58500147e+00 3.75296688e+00 -6.88983440e-01 2.39453459e+00
      -6.08351803e+00 -7.28004408e+00 2.48516530e-01 3.64490837e-01
      1.85991561e+00 1.78839004e+00 1.98639929e+00 2.05267024e+00
      1.46822363e-01 -7.41555309e+00 -5.44868851e+00 1.55495787e+00
      7.79364288e-01 1.79183960e+01</_>
    <_>
      8.12500954e-01 3.18750048e+00 2.06249952e+00 -9.99999905e+00
      -5.75000000e+00 -2.00000072e+00 1. -3.12500060e-01 3.74999940e-01
      5.62499642e-01 -4.25000000e+00 6.24998957e-02 -4.12500048e+00
      -2.81249928e+00 -1.87499976e+00 -1. 2.18749976e+00 8.12500060e-01
      6.87500000e-01 6.25000119e-01 1.87499976e+00 0. -1.18749976e+00
      -1.81250012e+00 1.50000036e+00 1.93750019e+01</_>
    <_>
      6.57352114e+00 2.83876514e+00 -4.64950752e+00 -1.30104342e+01
      -1.92142334e+01 4.79607210e-02 8.18104935e+00 1.09473476e+01
      7.30077267e+00 5.80663633e+00 -1.49296379e+00 -4.14305639e+00
      -5.38484812e+00 -7.82879829e+00 -6.89540243e+00 -6.58231640e+00
      -2.67811847e+00 -1.53611287e-01 3.12206817e+00 2.93339562e+00
      3.36620474e+00 3.21376610e+00 1.16791278e-01 2.37324071e+00
      2.40185165e+00 1.28099136e+01</_>
    <_>
      1.04350138e+01 -3.13835764e+00 -1.91091557e+01 -2.08136158e+01
      -7.23297644e+00 2.68023086e+00 2.39991331e+00 5.96781826e+00
      6.63773537e+00 6.43265390e+00 -2.76093096e-01 1.00928173e+01
      -3.04504228e-03 -3.78460598e+00 1.59890687e+00 4.67898798e+00
      3.01031327e+00 5.21869473e-02 1.63829610e-01 -3.21906066e+00
      -5.19234610e+00 -5.54547596e+00 1.96179271e+00 2.23968673e+00
      -4.62971866e-01 1.04258127e+01</_>
    <_>
      1.38912702e+00 1.76025128e+00 -1.16972427e+01 -2.13307838e+01
      -8.94798470e+00 -3.22278261e-01 6.75572920e+00 1.05935869e+01
      8.02987671e+00 -3.27654004e-01 -6.05400610e+00 1.59102082e+00
      1.71164978e+00 -4.31878901e+00 2.15787816e+00 1.16747677e+00
      4.62606877e-01 5.80678463e-01 3.43629909e+00 3.01322746e+00
      7.92677164e+00 3.48505640e+00 -6.00723982e+00 -3.99325109e+00
      1.58119947e-01 8.77986908e+00</_>
    <_>
      8.84250832e+00 -5.57116175e+00 -1.83120632e+01 2.75644287e-02
      1.36264312e+00 7.46144533e-01 1.44855511e+00 6.08032417e+00
      6.76715040e+00 4.14887857e+00 -2.83502042e-01 8.41210270e+00
      3.45233035e+00 1.38593256e+00 6.44313431e+00 6.61276293e+00
      5.68871975e+00 2.17608857e+00 -5.02795517e-01 -3.93880546e-01
      -3.14344239e+00 -5.31034088e+00 -6.79959965e+00 -5.26211548e+00
      1.92196035e+00 -1.99379025e+01</_>
    <_>
      -9.24559355e-01 2.55801201e+00 -3.75246549e+00 -3.68864632e+00
      -2.32966661e+00 -5.15607405e+00 -2.23593153e-02 -8.78169596e-01
      -1.91065216e+00 -2.84674382e+00 -3.72280025e+00 -2.48081064e+00
      -2.80413771e+00 -1.03107393e+00 9.40317333e-01 3.04401422e+00
